<?xml version="1.0"?>
<MethodSetup Method="BDT::BDT">
  <GeneralInfo>
    <Info name="TMVA Release" value="4.2.0 [262656]"/>
    <Info name="ROOT Release" value="6.02/13 [393741]"/>
    <Info name="Creator" value="wangj"/>
    <Info name="Date" value="Wed Jul 19 05:41:31 2017"/>
    <Info name="Host" value="Linux vocms029.cern.ch 2.6.32-504.12.2.el6.x86_64 #1 SMP Thu Mar 12 07:33:00 CET 2015 x86_64 x86_64 x86_64 GNU/Linux"/>
    <Info name="Dir" value="/afs/cern.ch/user/w/wangj/tutorialTMVABntupleRunII/CMSSW_7_5_8_patch3/src/debug/tutorialTMVABntupleRunII/myTMVA"/>
    <Info name="Training events" value="2157"/>
    <Info name="TrainingTime" value="1.04336786e+00"/>
    <Info name="AnalysisType" value="Classification"/>
  </GeneralInfo>
  <Options>
    <Option name="V" modified="Yes">False</Option>
    <Option name="VerbosityLevel" modified="No">Default</Option>
    <Option name="VarTransform" modified="No">None</Option>
    <Option name="H" modified="Yes">False</Option>
    <Option name="CreateMVAPdfs" modified="No">False</Option>
    <Option name="IgnoreNegWeightsInTraining" modified="No">False</Option>
    <Option name="NTrees" modified="Yes">850</Option>
    <Option name="MaxDepth" modified="Yes">3</Option>
    <Option name="MinNodeSize" modified="Yes">2.5%</Option>
    <Option name="nCuts" modified="Yes">20</Option>
    <Option name="BoostType" modified="Yes">AdaBoost</Option>
    <Option name="AdaBoostR2Loss" modified="No">quadratic</Option>
    <Option name="UseBaggedBoost" modified="Yes">True</Option>
    <Option name="Shrinkage" modified="No">1.000000e+00</Option>
    <Option name="AdaBoostBeta" modified="Yes">5.000000e-01</Option>
    <Option name="UseRandomisedTrees" modified="No">False</Option>
    <Option name="UseNvars" modified="No">3</Option>
    <Option name="UsePoissonNvars" modified="No">True</Option>
    <Option name="BaggedSampleFraction" modified="Yes">5.000000e-01</Option>
    <Option name="UseYesNoLeaf" modified="No">True</Option>
    <Option name="NegWeightTreatment" modified="No">inverseboostnegweights</Option>
    <Option name="Css" modified="No">1.000000e+00</Option>
    <Option name="Cts_sb" modified="No">1.000000e+00</Option>
    <Option name="Ctb_ss" modified="No">1.000000e+00</Option>
    <Option name="Cbb" modified="No">1.000000e+00</Option>
    <Option name="NodePurityLimit" modified="No">5.000000e-01</Option>
    <Option name="SeparationType" modified="Yes">giniindex</Option>
    <Option name="DoBoostMonitor" modified="No">False</Option>
    <Option name="UseFisherCuts" modified="No">False</Option>
    <Option name="MinLinCorrForFisher" modified="No">8.000000e-01</Option>
    <Option name="UseExclusiveVars" modified="No">False</Option>
    <Option name="DoPreselection" modified="No">False</Option>
    <Option name="SigToBkgFraction" modified="No">1.000000e+00</Option>
    <Option name="PruneMethod" modified="No">nopruning</Option>
    <Option name="PruneStrength" modified="No">0.000000e+00</Option>
    <Option name="PruningValFraction" modified="No">5.000000e-01</Option>
    <Option name="nEventsMin" modified="No">0</Option>
    <Option name="UseBaggedGrad" modified="No">False</Option>
    <Option name="GradBaggingFraction" modified="No">5.000000e-01</Option>
    <Option name="UseNTrainEvents" modified="No">0</Option>
    <Option name="NNodesMax" modified="No">0</Option>
  </Options>
  <Variables NVar="6">
    <Variable VarIndex="0" Expression="Btrk1Pt" Label="Btrk1Pt" Title="Btrk1Pt" Unit="" Internal="Btrk1Pt" Type="F" Min="8.00007522e-01" Max="5.28533077e+00"/>
    <Variable VarIndex="1" Expression="Bchi2cl" Label="Bchi2cl" Title="Bchi2cl" Unit="" Internal="Bchi2cl" Type="F" Min="1.00178365e-02" Max="9.99955595e-01"/>
    <Variable VarIndex="2" Expression="BsvpvDistance/BsvpvDisErr" Label="BsvpvDistance/BsvpvDisErr" Title="BsvpvDistance/BsvpvDisErr" Unit="" Internal="BsvpvDistance_D_BsvpvDisErr" Type="F" Min="5.50169134e+00" Max="9.28515930e+01"/>
    <Variable VarIndex="3" Expression="cos(Bdtheta)" Label="cos(Bdtheta)" Title="cos(Bdtheta)" Unit="" Internal="cos_Bdtheta_" Type="F" Min="-9.99998271e-01" Max="1.00000000e+00"/>
    <Variable VarIndex="4" Expression="abs(Btrk1Eta)" Label="abs(Btrk1Eta)" Title="abs(Btrk1Eta)" Unit="" Internal="abs_Btrk1Eta_" Type="F" Min="9.28362948e-04" Max="2.39975286e+00"/>
    <Variable VarIndex="5" Expression="Bmumupt" Label="Bmumupt" Title="Bmumupt" Unit="" Internal="Bmumupt" Type="F" Min="3.53259730e+00" Max="9.85490704e+00"/>
  </Variables>
  <Spectators NSpec="0"/>
  <Classes NClass="2">
    <Class Name="Signal" Index="0"/>
    <Class Name="Background" Index="1"/>
  </Classes>
  <Transformations NTransformations="0"/>
  <MVAPdfs/>
  <Weights NTrees="850" AnalysisType="0">
    <BinaryTree type="DecisionTree" boostWeight="8.4221797968622913e-01" itree="0">
      <Node pos="s" depth="0" NCoef="0" IVar="2" Cut="1.2901151657104492e+01" cType="0" res="-9.9000000000000000e+01" rms="0.0000000000000000e+00" purity="4.5998132228851318e-01" nType="0">
        <Node pos="l" depth="1" NCoef="0" IVar="-1" Cut="1.6428901672363281e+01" cType="0" res="-9.9000000000000000e+01" rms="0.0000000000000000e+00" purity="9.1556072235107422e-01" nType="1"/>
        <Node pos="r" depth="1" NCoef="0" IVar="1" Cut="2.9043984413146973e-01" cType="0" res="-9.9000000000000000e+01" rms="0.0000000000000000e+00" purity="3.0872455239295959e-01" nType="0">
          <Node pos="l" depth="2" NCoef="0" IVar="0" Cut="1.5661208629608154e+00" cType="0" res="-9.9000000000000000e+01" rms="0.0000000000000000e+00" purity="6.2174606323242188e-01" nType="0">
            <Node pos="l" depth="3" NCoef="0" IVar="-1" Cut="0.0000000000000000e+00" cType="1" res="-9.9000000000000000e+01" rms="0.0000000000000000e+00" purity="8.9123022556304932e-01" nType="1"/>
            <Node pos="r" depth="3" NCoef="0" IVar="-1" Cut="0.0000000000000000e+00" cType="1" res="-9.9000000000000000e+01" rms="0.0000000000000000e+00" purity="4.3682733178138733e-01" nType="-1"/>
          </Node>
          <Node pos="r" depth="2" NCoef="0" IVar="0" Cut="2.0042154788970947e+00" cType="0" res="-9.9000000000000000e+01" rms="0.0000000000000000e+00" purity="1.2749196588993073e-01" nType="0">
            <Node pos="l" depth="3" NCoef="0" IVar="-1" Cut="0.0000000000000000e+00" cType="1" res="-9.9000000000000000e+01" rms="0.0000000000000000e+00" purity="6.2679046392440796e-01" nType="1"/>
            <Node pos="r" depth="3" NCoef="0" IVar="-1" Cut="0.0000000000000000e+00" cType="1" res="-9.9000000000000000e+01" rms="0.0000000000000000e+00" purity="8.8875129818916321e-02" nType="-1"/>
          </Node>
        </Node>
      </Node>
    </BinaryTree>
    <BinaryTree type="DecisionTree" boostWeight="1.0036205131086160e+00" itree="1">
      <Node pos="s" depth="0" NCoef="0" IVar="1" Cut="1.5117511153221130e-01" cType="0" res="-9.9000000000000000e+01" rms="0.0000000000000000e+00" purity="4.9448695778846741e-01" nType="0">
        <Node pos="l" depth="1" NCoef="0" IVar="3" Cut="9.0476197004318237e-01" cType="0" res="-9.9000000000000000e+01" rms="0.0000000000000000e+00" purity="7.2619771957397461e-01" nType="0">
          <Node pos="l" depth="2" NCoef="0" IVar="3" Cut="9.8686718940734863e-01" cType="0" res="-9.9000000000000000e+01" rms="0.0000000000000000e+00" purity="7.7362376451492310e-01" nType="0">
            <Node pos="l" depth="3" NCoef="0" IVar="-1" Cut="0.0000000000000000e+00" cType="1" res="-9.9000000000000000e+01" rms="0.0000000000000000e+00" purity="8.3797442913055420e-01" nType="1"/>
            <Node pos="r" depth="3" NCoef="0" IVar="-1" Cut="0.0000000000000000e+00" cType="1" res="-9.9000000000000000e+01" rms="0.0000000000000000e+00" purity="0.0000000000000000e+00" nType="-1"/>
          </Node>
          <Node pos="r" depth="2" NCoef="0" IVar="-1" Cut="0.0000000000000000e+00" cType="1" res="-9.9000000000000000e+01" rms="0.0000000000000000e+00" purity="0.0000000000000000e+00" nType="-1"/>
        </Node>
        <Node pos="r" depth="1" NCoef="0" IVar="2" Cut="1.2291796684265137e+01" cType="0" res="-9.9000000000000000e+01" rms="0.0000000000000000e+00" purity="1.3047714531421661e-01" nType="0">
          <Node pos="l" depth="2" NCoef="0" IVar="-1" Cut="0.0000000000000000e+00" cType="1" res="-9.9000000000000000e+01" rms="0.0000000000000000e+00" purity="6.4345967769622803e-01" nType="1"/>
          <Node pos="r" depth="2" NCoef="0" IVar="-1" Cut="1.4039230346679688e+00" cType="0" res="-9.9000000000000000e+01" rms="0.0000000000000000e+00" purity="3.1148286536335945e-02" nType="-1"/>
        </Node>
      </Node>
    </BinaryTree>
    <BinaryTree type="DecisionTree" boostWeight="8.1373575272564558e-01" itree="2">
      <Node pos="s" depth="0" NCoef="0" IVar="1" Cut="1.9832319021224976e-01" cType="0" res="-9.9000000000000000e+01" rms="0.0000000000000000e+00" purity="4.6463215351104736e-01" nType="0">
        <Node pos="l" depth="1" NCoef="0" IVar="2" Cut="9.6715373992919922e+00" cType="0" res="-9.9000000000000000e+01" rms="0.0000000000000000e+00" purity="7.1805250644683838e-01" nType="0">
          <Node pos="l" depth="2" NCoef="0" IVar="-1" Cut="1.8273981809616089e+00" cType="1" res="-9.9000000000000000e+01" rms="0.0000000000000000e+00" purity="8.8764804601669312e-01" nType="1"/>
          <Node pos="r" depth="2" NCoef="0" IVar="4" Cut="2.0533950328826904e+00" cType="1" res="-9.9000000000000000e+01" rms="0.0000000000000000e+00" purity="5.4240441322326660e-01" nType="0">
            <Node pos="l" depth="3" NCoef="0" IVar="-1" Cut="0.0000000000000000e+00" cType="1" res="-9.9000000000000000e+01" rms="0.0000000000000000e+00" purity="6.4452749490737915e-01" nType="1"/>
            <Node pos="r" depth="3" NCoef="0" IVar="-1" Cut="0.0000000000000000e+00" cType="1" res="-9.9000000000000000e+01" rms="0.0000000000000000e+00" purity="7.2645910084247589e-02" nType="-1"/>
          </Node>
        </Node>
        <Node pos="r" depth="1" NCoef="0" IVar="2" Cut="1.2603707313537598e+01" cType="0" res="-9.9000000000000000e+01" rms="0.0000000000000000e+00" purity="1.3048048317432404e-01" nType="0">
          <Node pos="l" depth="2" NCoef="0" IVar="-1" Cut="0.0000000000000000e+00" cType="1" res="-9.9000000000000000e+01" rms="0.0000000000000000e+00" purity="5.6386399269104004e-01" nType="1"/>
          <Node pos="r" depth="2" NCoef="0" IVar="-1" Cut="9.1714210510253906e+00" cType="0" res="-9.9000000000000000e+01" rms="0.0000000000000000e+00" purity="3.6660008132457733e-02" nType="-1"/>
        </Node>
      </Node>
    </BinaryTree>
    <BinaryTree type="DecisionTree" boostWeight="8.5244256048745104e-01" itree="3">
      <Node pos="s" depth="0" NCoef="0" IVar="1" Cut="3.8713699579238892e-01" cType="0" res="-9.9000000000000000e+01" rms="0.0000000000000000e+00" purity="4.5655032992362976e-01" nType="0">
        <Node pos="l" depth="1" NCoef="0" IVar="0" Cut="1.2703539133071899e+00" cType="0" res="-9.9000000000000000e+01" rms="0.0000000000000000e+00" purity="7.1445959806442261e-01" nType="0">
          <Node pos="l" depth="2" NCoef="0" IVar="-1" Cut="7.7272787094116211e+00" cType="0" res="-9.9000000000000000e+01" rms="0.0000000000000000e+00" purity="8.7608015537261963e-01" nType="1"/>
          <Node pos="r" depth="2" NCoef="0" IVar="1" Cut="7.8994083404541016e-01" cType="0" res="-9.9000000000000000e+01" rms="0.0000000000000000e+00" purity="5.1550334692001343e-01" nType="0">
            <Node pos="l" depth="3" NCoef="0" IVar="-1" Cut="0.0000000000000000e+00" cType="1" res="-9.9000000000000000e+01" rms="0.0000000000000000e+00" purity="8.0836999416351318e-01" nType="1"/>
            <Node pos="r" depth="3" NCoef="0" IVar="-1" Cut="0.0000000000000000e+00" cType="1" res="-9.9000000000000000e+01" rms="0.0000000000000000e+00" purity="3.5415443778038025e-01" nType="-1"/>
          </Node>
        </Node>
        <Node pos="r" depth="1" NCoef="0" IVar="2" Cut="8.4203147888183594e+00" cType="0" res="-9.9000000000000000e+01" rms="0.0000000000000000e+00" purity="2.4547322094440460e-01" nType="0">
          <Node pos="l" depth="2" NCoef="0" IVar="4" Cut="1.5934712886810303e+00" cType="1" res="-9.9000000000000000e+01" rms="0.0000000000000000e+00" purity="4.6724566817283630e-01" nType="0">
            <Node pos="l" depth="3" NCoef="0" IVar="-1" Cut="0.0000000000000000e+00" cType="1" res="-9.9000000000000000e+01" rms="0.0000000000000000e+00" purity="8.1662577390670776e-01" nType="1"/>
            <Node pos="r" depth="3" NCoef="0" IVar="-1" Cut="0.0000000000000000e+00" cType="1" res="-9.9000000000000000e+01" rms="0.0000000000000000e+00" purity="1.6602653264999390e-01" nType="-1"/>
          </Node>
          <Node pos="r" depth="2" NCoef="0" IVar="-1" Cut="1.9012322425842285e+00" cType="0" res="-9.9000000000000000e+01" rms="0.0000000000000000e+00" purity="6.7707397043704987e-02" nType="-1"/>
        </Node>
      </Node>
    </BinaryTree>
    <BinaryTree type="DecisionTree" boostWeight="7.5592614546758996e-01" itree="4">
      <Node pos="s" depth="0" NCoef="0" IVar="1" Cut="3.8643723726272583e-01" cType="0" res="-9.9000000000000000e+01" rms="0.0000000000000000e+00" purity="4.3030190467834473e-01" nType="0">
        <Node pos="l" depth="1" NCoef="0" IVar="2" Cut="1.2910961151123047e+01" cType="0" res="-9.9000000000000000e+01" rms="0.0000000000000000e+00" purity="6.9390565156936646e-01" nType="0">
          <Node pos="l" depth="2" NCoef="0" IVar="-1" Cut="1.4154534339904785e+00" cType="1" res="-9.9000000000000000e+01" rms="0.0000000000000000e+00" purity="9.1803646087646484e-01" nType="1"/>
          <Node pos="r" depth="2" NCoef="0" IVar="4" Cut="1.9399355649948120e+00" cType="1" res="-9.9000000000000000e+01" rms="0.0000000000000000e+00" purity="5.8398413658142090e-01" nType="0">
            <Node pos="l" depth="3" NCoef="0" IVar="-1" Cut="0.0000000000000000e+00" cType="1" res="-9.9000000000000000e+01" rms="0.0000000000000000e+00" purity="6.6950345039367676e-01" nType="1"/>
            <Node pos="r" depth="3" NCoef="0" IVar="-1" Cut="0.0000000000000000e+00" cType="1" res="-9.9000000000000000e+01" rms="0.0000000000000000e+00" purity="2.6094910502433777e-01" nType="-1"/>
          </Node>
        </Node>
        <Node pos="r" depth="1" NCoef="0" IVar="4" Cut="1.7107843160629272e+00" cType="1" res="-9.9000000000000000e+01" rms="0.0000000000000000e+00" purity="2.4178959429264069e-01" nType="0">
          <Node pos="l" depth="2" NCoef="0" IVar="2" Cut="9.6612100601196289e+00" cType="0" res="-9.9000000000000000e+01" rms="0.0000000000000000e+00" purity="3.7996569275856018e-01" nType="0">
            <Node pos="l" depth="3" NCoef="0" IVar="-1" Cut="0.0000000000000000e+00" cType="1" res="-9.9000000000000000e+01" rms="0.0000000000000000e+00" purity="8.0049759149551392e-01" nType="1"/>
            <Node pos="r" depth="3" NCoef="0" IVar="-1" Cut="0.0000000000000000e+00" cType="1" res="-9.9000000000000000e+01" rms="0.0000000000000000e+00" purity="2.1274806559085846e-01" nType="-1"/>
          </Node>
          <Node pos="r" depth="2" NCoef="0" IVar="-1" Cut="1.8875579535961151e-01" cType="0" res="-9.9000000000000000e+01" rms="0.0000000000000000e+00" purity="3.3440157771110535e-02" nType="-1"/>
        </Node>
      </Node>
    </BinaryTree>
    <BinaryTree type="DecisionTree" boostWeight="6.9851223792261508e-01" itree="5">
      <Node pos="s" depth="0" NCoef="0" IVar="1" Cut="5.7157728821039200e-02" cType="0" res="-9.9000000000000000e+01" rms="0.0000000000000000e+00" purity="5.2229309082031250e-01" nType="0">
        <Node pos="l" depth="1" NCoef="0" IVar="3" Cut="9.0476197004318237e-01" cType="0" res="-9.9000000000000000e+01" rms="0.0000000000000000e+00" purity="6.1728519201278687e-01" nType="0">
          <Node pos="l" depth="2" NCoef="0" IVar="3" Cut="9.9562239646911621e-01" cType="0" res="-9.9000000000000000e+01" rms="0.0000000000000000e+00" purity="6.7481738328933716e-01" nType="0">
            <Node pos="l" depth="3" NCoef="0" IVar="-1" Cut="0.0000000000000000e+00" cType="1" res="-9.9000000000000000e+01" rms="0.0000000000000000e+00" purity="8.0489993095397949e-01" nType="1"/>
            <Node pos="r" depth="3" NCoef="0" IVar="-1" Cut="0.0000000000000000e+00" cType="1" res="-9.9000000000000000e+01" rms="0.0000000000000000e+00" purity="3.3371222019195557e-01" nType="-1"/>
          </Node>
          <Node pos="r" depth="2" NCoef="0" IVar="-1" Cut="0.0000000000000000e+00" cType="1" res="-9.9000000000000000e+01" rms="0.0000000000000000e+00" purity="0.0000000000000000e+00" nType="-1"/>
        </Node>
        <Node pos="r" depth="1" NCoef="0" IVar="-1" Cut="1.1438867568969727e+01" cType="0" res="-9.9000000000000000e+01" rms="0.0000000000000000e+00" purity="1.3665157556533813e-01" nType="-1"/>
      </Node>
    </BinaryTree>
    <BinaryTree type="DecisionTree" boostWeight="6.5847179759293606e-01" itree="6">
      <Node pos="s" depth="0" NCoef="0" IVar="2" Cut="1.7980543136596680e+01" cType="0" res="-9.9000000000000000e+01" rms="0.0000000000000000e+00" purity="3.9791810512542725e-01" nType="0">
        <Node pos="l" depth="1" NCoef="0" IVar="-1" Cut="0.0000000000000000e+00" cType="1" res="-9.9000000000000000e+01" rms="0.0000000000000000e+00" purity="9.3518519401550293e-01" nType="1"/>
        <Node pos="r" depth="1" NCoef="0" IVar="0" Cut="1.4235696792602539e+00" cType="0" res="-9.9000000000000000e+01" rms="0.0000000000000000e+00" purity="3.3569148182868958e-01" nType="0">
          <Node pos="l" depth="2" NCoef="0" IVar="1" Cut="1.5100790560245514e-01" cType="0" res="-9.9000000000000000e+01" rms="0.0000000000000000e+00" purity="5.9905534982681274e-01" nType="0">
            <Node pos="l" depth="3" NCoef="0" IVar="-1" Cut="0.0000000000000000e+00" cType="1" res="-9.9000000000000000e+01" rms="0.0000000000000000e+00" purity="7.2522258758544922e-01" nType="1"/>
            <Node pos="r" depth="3" NCoef="0" IVar="-1" Cut="0.0000000000000000e+00" cType="1" res="-9.9000000000000000e+01" rms="0.0000000000000000e+00" purity="2.6282274723052979e-01" nType="-1"/>
          </Node>
          <Node pos="r" depth="2" NCoef="0" IVar="-1" Cut="8.4044981002807617e+00" cType="0" res="-9.9000000000000000e+01" rms="0.0000000000000000e+00" purity="2.0721244812011719e-01" nType="-1"/>
        </Node>
      </Node>
    </BinaryTree>
    <BinaryTree type="DecisionTree" boostWeight="6.2159091935280053e-01" itree="7">
      <Node pos="s" depth="0" NCoef="0" IVar="4" Cut="2.0556170940399170e+00" cType="1" res="-9.9000000000000000e+01" rms="0.0000000000000000e+00" purity="4.4944930076599121e-01" nType="0">
        <Node pos="l" depth="1" NCoef="0" IVar="2" Cut="9.6625967025756836e+00" cType="0" res="-9.9000000000000000e+01" rms="0.0000000000000000e+00" purity="5.3477835655212402e-01" nType="0">
          <Node pos="l" depth="2" NCoef="0" IVar="-1" Cut="1.4948461949825287e-01" cType="0" res="-9.9000000000000000e+01" rms="0.0000000000000000e+00" purity="7.5655835866928101e-01" nType="1"/>
          <Node pos="r" depth="2" NCoef="0" IVar="2" Cut="7.2757372856140137e+00" cType="0" res="-9.9000000000000000e+01" rms="0.0000000000000000e+00" purity="3.7350168824195862e-01" nType="0">
            <Node pos="l" depth="3" NCoef="0" IVar="-1" Cut="0.0000000000000000e+00" cType="1" res="-9.9000000000000000e+01" rms="0.0000000000000000e+00" purity="6.1943823099136353e-01" nType="1"/>
            <Node pos="r" depth="3" NCoef="0" IVar="-1" Cut="0.0000000000000000e+00" cType="1" res="-9.9000000000000000e+01" rms="0.0000000000000000e+00" purity="2.0362576842308044e-01" nType="-1"/>
          </Node>
        </Node>
        <Node pos="r" depth="1" NCoef="0" IVar="-1" Cut="9.3850154876708984e+00" cType="0" res="-9.9000000000000000e+01" rms="0.0000000000000000e+00" purity="3.9677362889051437e-02" nType="-1"/>
      </Node>
    </BinaryTree>
    <BinaryTree type="DecisionTree" boostWeight="5.5668892081487864e-01" itree="8">
      <Node pos="s" depth="0" NCoef="0" IVar="0" Cut="1.4214502573013306e+00" cType="0" res="-9.9000000000000000e+01" rms="0.0000000000000000e+00" purity="5.0604766607284546e-01" nType="0">
        <Node pos="l" depth="1" NCoef="0" IVar="3" Cut="9.0476685762405396e-01" cType="0" res="-9.9000000000000000e+01" rms="0.0000000000000000e+00" purity="7.4225437641143799e-01" nType="0">
          <Node pos="l" depth="2" NCoef="0" IVar="-1" Cut="1.8206466436386108e+00" cType="1" res="-9.9000000000000000e+01" rms="0.0000000000000000e+00" purity="8.1565272808074951e-01" nType="1"/>
          <Node pos="r" depth="2" NCoef="0" IVar="-1" Cut="0.0000000000000000e+00" cType="1" res="-9.9000000000000000e+01" rms="0.0000000000000000e+00" purity="0.0000000000000000e+00" nType="-1"/>
        </Node>
        <Node pos="r" depth="1" NCoef="0" IVar="1" Cut="3.8148391246795654e-01" cType="0" res="-9.9000000000000000e+01" rms="0.0000000000000000e+00" purity="3.7543725967407227e-01" nType="0">
          <Node pos="l" depth="2" NCoef="0" IVar="2" Cut="9.6027688980102539e+00" cType="0" res="-9.9000000000000000e+01" rms="0.0000000000000000e+00" purity="5.7692170143127441e-01" nType="0">
            <Node pos="l" depth="3" NCoef="0" IVar="-1" Cut="0.0000000000000000e+00" cType="1" res="-9.9000000000000000e+01" rms="0.0000000000000000e+00" purity="7.7996951341629028e-01" nType="1"/>
            <Node pos="r" depth="3" NCoef="0" IVar="-1" Cut="0.0000000000000000e+00" cType="1" res="-9.9000000000000000e+01" rms="0.0000000000000000e+00" purity="4.5545756816864014e-01" nType="-1"/>
          </Node>
          <Node pos="r" depth="2" NCoef="0" IVar="-1" Cut="1.7063051462173462e+00" cType="1" res="-9.9000000000000000e+01" rms="0.0000000000000000e+00" purity="2.4001134932041168e-01" nType="-1"/>
        </Node>
      </Node>
    </BinaryTree>
    <BinaryTree type="DecisionTree" boostWeight="5.1898887597504861e-01" itree="9">
      <Node pos="s" depth="0" NCoef="0" IVar="0" Cut="1.0004606246948242e+00" cType="0" res="-9.9000000000000000e+01" rms="0.0000000000000000e+00" purity="4.1033792495727539e-01" nType="0">
        <Node pos="l" depth="1" NCoef="0" IVar="2" Cut="9.6615371704101562e+00" cType="0" res="-9.9000000000000000e+01" rms="0.0000000000000000e+00" purity="5.2011126279830933e-01" nType="0">
          <Node pos="l" depth="2" NCoef="0" IVar="4" Cut="1.9546359777450562e+00" cType="1" res="-9.9000000000000000e+01" rms="0.0000000000000000e+00" purity="7.1624577045440674e-01" nType="0">
            <Node pos="l" depth="3" NCoef="0" IVar="-1" Cut="0.0000000000000000e+00" cType="1" res="-9.9000000000000000e+01" rms="0.0000000000000000e+00" purity="8.0969744920730591e-01" nType="1"/>
            <Node pos="r" depth="3" NCoef="0" IVar="-1" Cut="0.0000000000000000e+00" cType="1" res="-9.9000000000000000e+01" rms="0.0000000000000000e+00" purity="4.1096478700637817e-01" nType="-1"/>
          </Node>
          <Node pos="r" depth="2" NCoef="0" IVar="-1" Cut="1.9389215707778931e+00" cType="1" res="-9.9000000000000000e+01" rms="0.0000000000000000e+00" purity="3.7427034974098206e-01" nType="-1"/>
        </Node>
        <Node pos="r" depth="1" NCoef="0" IVar="-1" Cut="3.1497782468795776e-01" cType="0" res="-9.9000000000000000e+01" rms="0.0000000000000000e+00" purity="1.0470898449420929e-01" nType="-1"/>
      </Node>
    </BinaryTree>
    <BinaryTree type="DecisionTree" boostWeight="7.1867173847182730e-01" itree="10">
      <Node pos="s" depth="0" NCoef="0" IVar="4" Cut="1.7123912572860718e+00" cType="1" res="-9.9000000000000000e+01" rms="0.0000000000000000e+00" purity="5.1214355230331421e-01" nType="0">
        <Node pos="l" depth="1" NCoef="0" IVar="3" Cut="9.0476197004318237e-01" cType="0" res="-9.9000000000000000e+01" rms="0.0000000000000000e+00" purity="6.2777400016784668e-01" nType="0">
          <Node pos="l" depth="2" NCoef="0" IVar="3" Cut="9.8250305652618408e-01" cType="0" res="-9.9000000000000000e+01" rms="0.0000000000000000e+00" purity="6.9830691814422607e-01" nType="0">
            <Node pos="l" depth="3" NCoef="0" IVar="-1" Cut="0.0000000000000000e+00" cType="1" res="-9.9000000000000000e+01" rms="0.0000000000000000e+00" purity="7.6605010032653809e-01" nType="1"/>
            <Node pos="r" depth="3" NCoef="0" IVar="-1" Cut="0.0000000000000000e+00" cType="1" res="-9.9000000000000000e+01" rms="0.0000000000000000e+00" purity="0.0000000000000000e+00" nType="-1"/>
          </Node>
          <Node pos="r" depth="2" NCoef="0" IVar="-1" Cut="0.0000000000000000e+00" cType="1" res="-9.9000000000000000e+01" rms="0.0000000000000000e+00" purity="0.0000000000000000e+00" nType="-1"/>
        </Node>
        <Node pos="r" depth="1" NCoef="0" IVar="1" Cut="5.2230310440063477e-01" cType="0" res="-9.9000000000000000e+01" rms="0.0000000000000000e+00" purity="2.8704059123992920e-01" nType="0">
          <Node pos="l" depth="2" NCoef="0" IVar="5" Cut="8.0083789825439453e+00" cType="0" res="-9.9000000000000000e+01" rms="0.0000000000000000e+00" purity="6.2424546480178833e-01" nType="0">
            <Node pos="l" depth="3" NCoef="0" IVar="-1" Cut="0.0000000000000000e+00" cType="1" res="-9.9000000000000000e+01" rms="0.0000000000000000e+00" purity="7.3796725273132324e-01" nType="1"/>
            <Node pos="r" depth="3" NCoef="0" IVar="-1" Cut="0.0000000000000000e+00" cType="1" res="-9.9000000000000000e+01" rms="0.0000000000000000e+00" purity="4.5150789618492126e-01" nType="-1"/>
          </Node>
          <Node pos="r" depth="2" NCoef="0" IVar="-1" Cut="1.0114698410034180e+01" cType="0" res="-9.9000000000000000e+01" rms="0.0000000000000000e+00" purity="1.2117497622966766e-01" nType="-1"/>
        </Node>
      </Node>
    </BinaryTree>
    <BinaryTree type="DecisionTree" boostWeight="4.2153306799675816e-01" itree="11">
      <Node pos="s" depth="0" NCoef="0" IVar="2" Cut="1.7773218154907227e+01" cType="0" res="-9.9000000000000000e+01" rms="0.0000000000000000e+00" purity="4.4226816296577454e-01" nType="0">
        <Node pos="l" depth="1" NCoef="0" IVar="-1" Cut="0.0000000000000000e+00" cType="1" res="-9.9000000000000000e+01" rms="0.0000000000000000e+00" purity="9.6101069450378418e-01" nType="1"/>
        <Node pos="r" depth="1" NCoef="0" IVar="1" Cut="5.7070262730121613e-02" cType="0" res="-9.9000000000000000e+01" rms="0.0000000000000000e+00" purity="3.9629560708999634e-01" nType="0">
          <Node pos="l" depth="2" NCoef="0" IVar="0" Cut="1.7159196138381958e+00" cType="0" res="-9.9000000000000000e+01" rms="0.0000000000000000e+00" purity="4.5593073964118958e-01" nType="0">
            <Node pos="l" depth="3" NCoef="0" IVar="-1" Cut="0.0000000000000000e+00" cType="1" res="-9.9000000000000000e+01" rms="0.0000000000000000e+00" purity="7.2333621978759766e-01" nType="1"/>
            <Node pos="r" depth="3" NCoef="0" IVar="-1" Cut="0.0000000000000000e+00" cType="1" res="-9.9000000000000000e+01" rms="0.0000000000000000e+00" purity="3.9160782098770142e-01" nType="-1"/>
          </Node>
          <Node pos="r" depth="2" NCoef="0" IVar="-1" Cut="8.4841346740722656e+00" cType="0" res="-9.9000000000000000e+01" rms="0.0000000000000000e+00" purity="9.7621977329254150e-02" nType="-1"/>
        </Node>
      </Node>
    </BinaryTree>
    <BinaryTree type="DecisionTree" boostWeight="4.8649112993225474e-01" itree="12">
      <Node pos="s" depth="0" NCoef="0" IVar="2" Cut="1.7338645935058594e+01" cType="0" res="-9.9000000000000000e+01" rms="0.0000000000000000e+00" purity="3.9686065912246704e-01" nType="0">
        <Node pos="l" depth="1" NCoef="0" IVar="-1" Cut="3.4054541587829590e-01" cType="0" res="-9.9000000000000000e+01" rms="0.0000000000000000e+00" purity="9.2032545804977417e-01" nType="1"/>
        <Node pos="r" depth="1" NCoef="0" IVar="0" Cut="1.0144066810607910e+00" cType="0" res="-9.9000000000000000e+01" rms="0.0000000000000000e+00" purity="3.3559501171112061e-01" nType="0">
          <Node pos="l" depth="2" NCoef="0" IVar="4" Cut="2.5728005170822144e-01" cType="1" res="-9.9000000000000000e+01" rms="0.0000000000000000e+00" purity="4.0713298320770264e-01" nType="0">
            <Node pos="l" depth="3" NCoef="0" IVar="-1" Cut="0.0000000000000000e+00" cType="1" res="-9.9000000000000000e+01" rms="0.0000000000000000e+00" purity="6.7971158027648926e-01" nType="1"/>
            <Node pos="r" depth="3" NCoef="0" IVar="-1" Cut="0.0000000000000000e+00" cType="1" res="-9.9000000000000000e+01" rms="0.0000000000000000e+00" purity="3.5836288332939148e-01" nType="-1"/>
          </Node>
          <Node pos="r" depth="2" NCoef="0" IVar="-1" Cut="3.7974661588668823e-01" cType="0" res="-9.9000000000000000e+01" rms="0.0000000000000000e+00" purity="1.6350038349628448e-01" nType="-1"/>
        </Node>
      </Node>
    </BinaryTree>
    <BinaryTree type="DecisionTree" boostWeight="5.7953403869058828e-01" itree="13">
      <Node pos="s" depth="0" NCoef="0" IVar="0" Cut="1.6559832096099854e+00" cType="0" res="-9.9000000000000000e+01" rms="0.0000000000000000e+00" purity="5.6261211633682251e-01" nType="0">
        <Node pos="l" depth="1" NCoef="0" IVar="-1" Cut="7.7673335075378418e+00" cType="1" res="-9.9000000000000000e+01" rms="0.0000000000000000e+00" purity="8.2773649692535400e-01" nType="1"/>
        <Node pos="r" depth="1" NCoef="0" IVar="4" Cut="1.5975987911224365e+00" cType="1" res="-9.9000000000000000e+01" rms="0.0000000000000000e+00" purity="4.6493768692016602e-01" nType="0">
          <Node pos="l" depth="2" NCoef="0" IVar="1" Cut="5.5140115320682526e-02" cType="0" res="-9.9000000000000000e+01" rms="0.0000000000000000e+00" purity="6.1179870367050171e-01" nType="0">
            <Node pos="l" depth="3" NCoef="0" IVar="-1" Cut="0.0000000000000000e+00" cType="1" res="-9.9000000000000000e+01" rms="0.0000000000000000e+00" purity="7.0257848501205444e-01" nType="1"/>
            <Node pos="r" depth="3" NCoef="0" IVar="-1" Cut="0.0000000000000000e+00" cType="1" res="-9.9000000000000000e+01" rms="0.0000000000000000e+00" purity="9.9876508116722107e-02" nType="-1"/>
          </Node>
          <Node pos="r" depth="2" NCoef="0" IVar="1" Cut="5.2230310440063477e-01" cType="0" res="-9.9000000000000000e+01" rms="0.0000000000000000e+00" purity="2.7081325650215149e-01" nType="0">
            <Node pos="l" depth="3" NCoef="0" IVar="-1" Cut="0.0000000000000000e+00" cType="1" res="-9.9000000000000000e+01" rms="0.0000000000000000e+00" purity="5.1997768878936768e-01" nType="1"/>
            <Node pos="r" depth="3" NCoef="0" IVar="-1" Cut="0.0000000000000000e+00" cType="1" res="-9.9000000000000000e+01" rms="0.0000000000000000e+00" purity="1.4872166514396667e-01" nType="-1"/>
          </Node>
        </Node>
      </Node>
    </BinaryTree>
    <BinaryTree type="DecisionTree" boostWeight="6.8736954482227930e-01" itree="14">
      <Node pos="s" depth="0" NCoef="0" IVar="3" Cut="9.0476286411285400e-01" cType="0" res="-9.9000000000000000e+01" rms="0.0000000000000000e+00" purity="5.8989340066909790e-01" nType="0">
        <Node pos="l" depth="1" NCoef="0" IVar="3" Cut="9.9124479293823242e-01" cType="0" res="-9.9000000000000000e+01" rms="0.0000000000000000e+00" purity="6.3428425788879395e-01" nType="0">
          <Node pos="l" depth="2" NCoef="0" IVar="0" Cut="1.0135943889617920e+00" cType="0" res="-9.9000000000000000e+01" rms="0.0000000000000000e+00" purity="7.1746575832366943e-01" nType="0">
            <Node pos="l" depth="3" NCoef="0" IVar="-1" Cut="0.0000000000000000e+00" cType="1" res="-9.9000000000000000e+01" rms="0.0000000000000000e+00" purity="8.0311161279678345e-01" nType="1"/>
            <Node pos="r" depth="3" NCoef="0" IVar="-1" Cut="0.0000000000000000e+00" cType="1" res="-9.9000000000000000e+01" rms="0.0000000000000000e+00" purity="3.6284554004669189e-01" nType="-1"/>
          </Node>
          <Node pos="r" depth="2" NCoef="0" IVar="0" Cut="2.0238227844238281e+00" cType="0" res="-9.9000000000000000e+01" rms="0.0000000000000000e+00" purity="1.8546994030475616e-01" nType="0">
            <Node pos="l" depth="3" NCoef="0" IVar="-1" Cut="0.0000000000000000e+00" cType="1" res="-9.9000000000000000e+01" rms="0.0000000000000000e+00" purity="5.7202458381652832e-01" nType="1"/>
            <Node pos="r" depth="3" NCoef="0" IVar="-1" Cut="0.0000000000000000e+00" cType="1" res="-9.9000000000000000e+01" rms="0.0000000000000000e+00" purity="6.6697202622890472e-02" nType="-1"/>
          </Node>
        </Node>
        <Node pos="r" depth="1" NCoef="0" IVar="-1" Cut="0.0000000000000000e+00" cType="1" res="-9.9000000000000000e+01" rms="0.0000000000000000e+00" purity="0.0000000000000000e+00" nType="-1"/>
      </Node>
    </BinaryTree>
    <BinaryTree type="DecisionTree" boostWeight="5.0594763865601566e-01" itree="15">
      <Node pos="s" depth="0" NCoef="0" IVar="2" Cut="1.7980249404907227e+01" cType="0" res="-9.9000000000000000e+01" rms="0.0000000000000000e+00" purity="4.3733814358711243e-01" nType="0">
        <Node pos="l" depth="1" NCoef="0" IVar="-1" Cut="0.0000000000000000e+00" cType="1" res="-9.9000000000000000e+01" rms="0.0000000000000000e+00" purity="9.8792237043380737e-01" nType="1"/>
        <Node pos="r" depth="1" NCoef="0" IVar="1" Cut="2.4527996778488159e-01" cType="0" res="-9.9000000000000000e+01" rms="0.0000000000000000e+00" purity="3.9475387334823608e-01" nType="0">
          <Node pos="l" depth="2" NCoef="0" IVar="4" Cut="8.1040227413177490e-01" cType="1" res="-9.9000000000000000e+01" rms="0.0000000000000000e+00" purity="5.1893210411071777e-01" nType="0">
            <Node pos="l" depth="3" NCoef="0" IVar="-1" Cut="0.0000000000000000e+00" cType="1" res="-9.9000000000000000e+01" rms="0.0000000000000000e+00" purity="7.9192566871643066e-01" nType="1"/>
            <Node pos="r" depth="3" NCoef="0" IVar="-1" Cut="0.0000000000000000e+00" cType="1" res="-9.9000000000000000e+01" rms="0.0000000000000000e+00" purity="4.0145662426948547e-01" nType="-1"/>
          </Node>
          <Node pos="r" depth="2" NCoef="0" IVar="-1" Cut="7.2504987716674805e+00" cType="0" res="-9.9000000000000000e+01" rms="0.0000000000000000e+00" purity="1.9432786107063293e-01" nType="-1"/>
        </Node>
      </Node>
    </BinaryTree>
    <BinaryTree type="DecisionTree" boostWeight="3.3257724073474620e-01" itree="16">
      <Node pos="s" depth="0" NCoef="0" IVar="3" Cut="9.0476197004318237e-01" cType="0" res="-9.9000000000000000e+01" rms="0.0000000000000000e+00" purity="5.2800613641738892e-01" nType="0">
        <Node pos="l" depth="1" NCoef="0" IVar="0" Cut="1.8613731861114502e+00" cType="0" res="-9.9000000000000000e+01" rms="0.0000000000000000e+00" purity="5.5926340818405151e-01" nType="0">
          <Node pos="l" depth="2" NCoef="0" IVar="-1" Cut="9.9595344066619873e-01" cType="0" res="-9.9000000000000000e+01" rms="0.0000000000000000e+00" purity="8.3527904748916626e-01" nType="1"/>
          <Node pos="r" depth="2" NCoef="0" IVar="4" Cut="2.0590097904205322e+00" cType="1" res="-9.9000000000000000e+01" rms="0.0000000000000000e+00" purity="4.9724879860877991e-01" nType="0">
            <Node pos="l" depth="3" NCoef="0" IVar="-1" Cut="0.0000000000000000e+00" cType="1" res="-9.9000000000000000e+01" rms="0.0000000000000000e+00" purity="5.5661219358444214e-01" nType="1"/>
            <Node pos="r" depth="3" NCoef="0" IVar="-1" Cut="0.0000000000000000e+00" cType="1" res="-9.9000000000000000e+01" rms="0.0000000000000000e+00" purity="2.1131297945976257e-01" nType="-1"/>
          </Node>
        </Node>
        <Node pos="r" depth="1" NCoef="0" IVar="-1" Cut="0.0000000000000000e+00" cType="1" res="-9.9000000000000000e+01" rms="0.0000000000000000e+00" purity="0.0000000000000000e+00" nType="-1"/>
      </Node>
    </BinaryTree>
    <BinaryTree type="DecisionTree" boostWeight="4.7957349569578928e-01" itree="17">
      <Node pos="s" depth="0" NCoef="0" IVar="3" Cut="9.0476197004318237e-01" cType="0" res="-9.9000000000000000e+01" rms="0.0000000000000000e+00" purity="4.6861037611961365e-01" nType="0">
        <Node pos="l" depth="1" NCoef="0" IVar="0" Cut="1.2290676832199097e+00" cType="0" res="-9.9000000000000000e+01" rms="0.0000000000000000e+00" purity="5.0374585390090942e-01" nType="0">
          <Node pos="l" depth="2" NCoef="0" IVar="3" Cut="9.8381382226943970e-01" cType="0" res="-9.9000000000000000e+01" rms="0.0000000000000000e+00" purity="6.2442070245742798e-01" nType="0">
            <Node pos="l" depth="3" NCoef="0" IVar="-1" Cut="0.0000000000000000e+00" cType="1" res="-9.9000000000000000e+01" rms="0.0000000000000000e+00" purity="6.8144166469573975e-01" nType="1"/>
            <Node pos="r" depth="3" NCoef="0" IVar="-1" Cut="0.0000000000000000e+00" cType="1" res="-9.9000000000000000e+01" rms="0.0000000000000000e+00" purity="1.4829833805561066e-01" nType="-1"/>
          </Node>
          <Node pos="r" depth="2" NCoef="0" IVar="1" Cut="4.2920687794685364e-01" cType="0" res="-9.9000000000000000e+01" rms="0.0000000000000000e+00" purity="3.6408206820487976e-01" nType="0">
            <Node pos="l" depth="3" NCoef="0" IVar="-1" Cut="0.0000000000000000e+00" cType="1" res="-9.9000000000000000e+01" rms="0.0000000000000000e+00" purity="5.6013721227645874e-01" nType="1"/>
            <Node pos="r" depth="3" NCoef="0" IVar="-1" Cut="0.0000000000000000e+00" cType="1" res="-9.9000000000000000e+01" rms="0.0000000000000000e+00" purity="9.8584316670894623e-02" nType="-1"/>
          </Node>
        </Node>
        <Node pos="r" depth="1" NCoef="0" IVar="-1" Cut="0.0000000000000000e+00" cType="1" res="-9.9000000000000000e+01" rms="0.0000000000000000e+00" purity="0.0000000000000000e+00" nType="-1"/>
      </Node>
    </BinaryTree>
    <BinaryTree type="DecisionTree" boostWeight="4.8160254693759907e-01" itree="18">
      <Node pos="s" depth="0" NCoef="0" IVar="2" Cut="1.7980249404907227e+01" cType="0" res="-9.9000000000000000e+01" rms="0.0000000000000000e+00" purity="4.0530622005462646e-01" nType="0">
        <Node pos="l" depth="1" NCoef="0" IVar="-1" Cut="4.2880749702453613e-01" cType="0" res="-9.9000000000000000e+01" rms="0.0000000000000000e+00" purity="9.0016818046569824e-01" nType="1"/>
        <Node pos="r" depth="1" NCoef="0" IVar="1" Cut="2.8808036446571350e-01" cType="0" res="-9.9000000000000000e+01" rms="0.0000000000000000e+00" purity="3.6083894968032837e-01" nType="0">
          <Node pos="l" depth="2" NCoef="0" IVar="2" Cut="6.6618313789367676e+00" cType="0" res="-9.9000000000000000e+01" rms="0.0000000000000000e+00" purity="5.0741434097290039e-01" nType="0">
            <Node pos="l" depth="3" NCoef="0" IVar="-1" Cut="0.0000000000000000e+00" cType="1" res="-9.9000000000000000e+01" rms="0.0000000000000000e+00" purity="5.9813958406448364e-01" nType="1"/>
            <Node pos="r" depth="3" NCoef="0" IVar="-1" Cut="0.0000000000000000e+00" cType="1" res="-9.9000000000000000e+01" rms="0.0000000000000000e+00" purity="2.4995586276054382e-01" nType="-1"/>
          </Node>
          <Node pos="r" depth="2" NCoef="0" IVar="-1" Cut="6.8808758258819580e-01" cType="0" res="-9.9000000000000000e+01" rms="0.0000000000000000e+00" purity="2.2891260683536530e-01" nType="-1"/>
        </Node>
      </Node>
    </BinaryTree>
    <BinaryTree type="DecisionTree" boostWeight="4.6176104744690422e-01" itree="19">
      <Node pos="s" depth="0" NCoef="0" IVar="2" Cut="1.0897974014282227e+01" cType="0" res="-9.9000000000000000e+01" rms="0.0000000000000000e+00" purity="4.0439286828041077e-01" nType="0">
        <Node pos="l" depth="1" NCoef="0" IVar="4" Cut="2.0612063407897949e+00" cType="1" res="-9.9000000000000000e+01" rms="0.0000000000000000e+00" purity="6.5507471561431885e-01" nType="0">
          <Node pos="l" depth="2" NCoef="0" IVar="0" Cut="1.0190901756286621e+00" cType="0" res="-9.9000000000000000e+01" rms="0.0000000000000000e+00" purity="7.4353772401809692e-01" nType="0">
            <Node pos="l" depth="3" NCoef="0" IVar="-1" Cut="0.0000000000000000e+00" cType="1" res="-9.9000000000000000e+01" rms="0.0000000000000000e+00" purity="8.3918952941894531e-01" nType="1"/>
            <Node pos="r" depth="3" NCoef="0" IVar="-1" Cut="0.0000000000000000e+00" cType="1" res="-9.9000000000000000e+01" rms="0.0000000000000000e+00" purity="4.3164950609207153e-01" nType="-1"/>
          </Node>
          <Node pos="r" depth="2" NCoef="0" IVar="-1" Cut="0.0000000000000000e+00" cType="1" res="-9.9000000000000000e+01" rms="0.0000000000000000e+00" purity="3.8689222931861877e-01" nType="-1"/>
        </Node>
        <Node pos="r" depth="1" NCoef="0" IVar="1" Cut="6.1750036478042603e-01" cType="0" res="-9.9000000000000000e+01" rms="0.0000000000000000e+00" purity="3.1071868538856506e-01" nType="0">
          <Node pos="l" depth="2" NCoef="0" IVar="0" Cut="1.3080066442489624e+00" cType="0" res="-9.9000000000000000e+01" rms="0.0000000000000000e+00" purity="4.8491030931472778e-01" nType="0">
            <Node pos="l" depth="3" NCoef="0" IVar="-1" Cut="0.0000000000000000e+00" cType="1" res="-9.9000000000000000e+01" rms="0.0000000000000000e+00" purity="5.8837950229644775e-01" nType="1"/>
            <Node pos="r" depth="3" NCoef="0" IVar="-1" Cut="0.0000000000000000e+00" cType="1" res="-9.9000000000000000e+01" rms="0.0000000000000000e+00" purity="4.2058905959129333e-01" nType="-1"/>
          </Node>
          <Node pos="r" depth="2" NCoef="0" IVar="-1" Cut="1.8423966169357300e+00" cType="0" res="-9.9000000000000000e+01" rms="0.0000000000000000e+00" purity="2.4198694527149200e-01" nType="-1"/>
        </Node>
      </Node>
    </BinaryTree>
    <BinaryTree type="DecisionTree" boostWeight="4.6225098438668161e-01" itree="20">
      <Node pos="s" depth="0" NCoef="0" IVar="3" Cut="9.0476197004318237e-01" cType="0" res="-9.9000000000000000e+01" rms="0.0000000000000000e+00" purity="4.1446235775947571e-01" nType="0">
        <Node pos="l" depth="1" NCoef="0" IVar="3" Cut="9.9554890394210815e-01" cType="0" res="-9.9000000000000000e+01" rms="0.0000000000000000e+00" purity="4.4374799728393555e-01" nType="0">
          <Node pos="l" depth="2" NCoef="0" IVar="4" Cut="1.4897993803024292e+00" cType="1" res="-9.9000000000000000e+01" rms="0.0000000000000000e+00" purity="5.7560390233993530e-01" nType="0">
            <Node pos="l" depth="3" NCoef="0" IVar="-1" Cut="0.0000000000000000e+00" cType="1" res="-9.9000000000000000e+01" rms="0.0000000000000000e+00" purity="7.1331781148910522e-01" nType="1"/>
            <Node pos="r" depth="3" NCoef="0" IVar="-1" Cut="0.0000000000000000e+00" cType="1" res="-9.9000000000000000e+01" rms="0.0000000000000000e+00" purity="4.3236052989959717e-01" nType="-1"/>
          </Node>
          <Node pos="r" depth="2" NCoef="0" IVar="-1" Cut="3.3943969011306763e-01" cType="0" res="-9.9000000000000000e+01" rms="0.0000000000000000e+00" purity="2.0733395218849182e-01" nType="-1"/>
        </Node>
        <Node pos="r" depth="1" NCoef="0" IVar="-1" Cut="0.0000000000000000e+00" cType="1" res="-9.9000000000000000e+01" rms="0.0000000000000000e+00" purity="0.0000000000000000e+00" nType="-1"/>
      </Node>
    </BinaryTree>
    <BinaryTree type="DecisionTree" boostWeight="4.6069953560690513e-01" itree="21">
      <Node pos="s" depth="0" NCoef="0" IVar="1" Cut="5.7121522724628448e-02" cType="0" res="-9.9000000000000000e+01" rms="0.0000000000000000e+00" purity="5.3263676166534424e-01" nType="0">
        <Node pos="l" depth="1" NCoef="0" IVar="3" Cut="9.0477550029754639e-01" cType="0" res="-9.9000000000000000e+01" rms="0.0000000000000000e+00" purity="5.8955836296081543e-01" nType="0">
          <Node pos="l" depth="2" NCoef="0" IVar="3" Cut="9.9154192209243774e-01" cType="0" res="-9.9000000000000000e+01" rms="0.0000000000000000e+00" purity="6.1847770214080811e-01" nType="0">
            <Node pos="l" depth="3" NCoef="0" IVar="-1" Cut="0.0000000000000000e+00" cType="1" res="-9.9000000000000000e+01" rms="0.0000000000000000e+00" purity="6.7019081115722656e-01" nType="1"/>
            <Node pos="r" depth="3" NCoef="0" IVar="-1" Cut="0.0000000000000000e+00" cType="1" res="-9.9000000000000000e+01" rms="0.0000000000000000e+00" purity="3.0317378044128418e-01" nType="-1"/>
          </Node>
          <Node pos="r" depth="2" NCoef="0" IVar="-1" Cut="0.0000000000000000e+00" cType="1" res="-9.9000000000000000e+01" rms="0.0000000000000000e+00" purity="0.0000000000000000e+00" nType="-1"/>
        </Node>
        <Node pos="r" depth="1" NCoef="0" IVar="-1" Cut="1.3450838327407837e+00" cType="0" res="-9.9000000000000000e+01" rms="0.0000000000000000e+00" purity="7.4140004813671112e-02" nType="-1"/>
      </Node>
    </BinaryTree>
    <BinaryTree type="DecisionTree" boostWeight="6.0133580040853751e-01" itree="22">
      <Node pos="s" depth="0" NCoef="0" IVar="0" Cut="1.2271811962127686e+00" cType="0" res="-9.9000000000000000e+01" rms="0.0000000000000000e+00" purity="5.5370986461639404e-01" nType="0">
        <Node pos="l" depth="1" NCoef="0" IVar="3" Cut="9.0477555990219116e-01" cType="0" res="-9.9000000000000000e+01" rms="0.0000000000000000e+00" purity="6.8419647216796875e-01" nType="0">
          <Node pos="l" depth="2" NCoef="0" IVar="3" Cut="9.9154198169708252e-01" cType="0" res="-9.9000000000000000e+01" rms="0.0000000000000000e+00" purity="7.3158353567123413e-01" nType="0">
            <Node pos="l" depth="3" NCoef="0" IVar="-1" Cut="0.0000000000000000e+00" cType="1" res="-9.9000000000000000e+01" rms="0.0000000000000000e+00" purity="7.9810565710067749e-01" nType="1"/>
            <Node pos="r" depth="3" NCoef="0" IVar="-1" Cut="0.0000000000000000e+00" cType="1" res="-9.9000000000000000e+01" rms="0.0000000000000000e+00" purity="3.7525367736816406e-01" nType="-1"/>
          </Node>
          <Node pos="r" depth="2" NCoef="0" IVar="-1" Cut="0.0000000000000000e+00" cType="1" res="-9.9000000000000000e+01" rms="0.0000000000000000e+00" purity="0.0000000000000000e+00" nType="-1"/>
        </Node>
        <Node pos="r" depth="1" NCoef="0" IVar="4" Cut="6.9931566715240479e-01" cType="1" res="-9.9000000000000000e+01" rms="0.0000000000000000e+00" purity="3.7886101007461548e-01" nType="0">
          <Node pos="l" depth="2" NCoef="0" IVar="0" Cut="1.0292936563491821e+00" cType="1" res="-9.9000000000000000e+01" rms="0.0000000000000000e+00" purity="6.2210136651992798e-01" nType="0">
            <Node pos="l" depth="3" NCoef="0" IVar="-1" Cut="0.0000000000000000e+00" cType="1" res="-9.9000000000000000e+01" rms="0.0000000000000000e+00" purity="8.2541519403457642e-01" nType="1"/>
            <Node pos="r" depth="3" NCoef="0" IVar="-1" Cut="0.0000000000000000e+00" cType="1" res="-9.9000000000000000e+01" rms="0.0000000000000000e+00" purity="1.9388730823993683e-01" nType="-1"/>
          </Node>
          <Node pos="r" depth="2" NCoef="0" IVar="-1" Cut="5.2234357595443726e-01" cType="0" res="-9.9000000000000000e+01" rms="0.0000000000000000e+00" purity="2.8218260407447815e-01" nType="-1"/>
        </Node>
      </Node>
    </BinaryTree>
    <BinaryTree type="DecisionTree" boostWeight="6.7906347881177676e-01" itree="23">
      <Node pos="s" depth="0" NCoef="0" IVar="2" Cut="1.6600881576538086e+01" cType="0" res="-9.9000000000000000e+01" rms="0.0000000000000000e+00" purity="4.3724241852760315e-01" nType="0">
        <Node pos="l" depth="1" NCoef="0" IVar="-1" Cut="1.4533734321594238e+00" cType="0" res="-9.9000000000000000e+01" rms="0.0000000000000000e+00" purity="9.3058991432189941e-01" nType="1"/>
        <Node pos="r" depth="1" NCoef="0" IVar="2" Cut="1.2445121765136719e+01" cType="0" res="-9.9000000000000000e+01" rms="0.0000000000000000e+00" purity="3.6524948477745056e-01" nType="0">
          <Node pos="l" depth="2" NCoef="0" IVar="1" Cut="1.9382987916469574e-01" cType="0" res="-9.9000000000000000e+01" rms="0.0000000000000000e+00" purity="7.9337781667709351e-01" nType="0">
            <Node pos="l" depth="3" NCoef="0" IVar="-1" Cut="0.0000000000000000e+00" cType="1" res="-9.9000000000000000e+01" rms="0.0000000000000000e+00" purity="8.6798655986785889e-01" nType="1"/>
            <Node pos="r" depth="3" NCoef="0" IVar="-1" Cut="0.0000000000000000e+00" cType="1" res="-9.9000000000000000e+01" rms="0.0000000000000000e+00" purity="4.3773123621940613e-01" nType="-1"/>
          </Node>
          <Node pos="r" depth="2" NCoef="0" IVar="-1" Cut="1.3362562656402588e+00" cType="0" res="-9.9000000000000000e+01" rms="0.0000000000000000e+00" purity="2.3610123991966248e-01" nType="-1"/>
        </Node>
      </Node>
    </BinaryTree>
    <BinaryTree type="DecisionTree" boostWeight="3.9484605132716100e-01" itree="24">
      <Node pos="s" depth="0" NCoef="0" IVar="5" Cut="6.2356677055358887e+00" cType="1" res="-9.9000000000000000e+01" rms="0.0000000000000000e+00" purity="4.6484202146530151e-01" nType="0">
        <Node pos="l" depth="1" NCoef="0" IVar="-1" Cut="0.0000000000000000e+00" cType="1" res="-9.9000000000000000e+01" rms="0.0000000000000000e+00" purity="8.9175629615783691e-01" nType="1"/>
        <Node pos="r" depth="1" NCoef="0" IVar="2" Cut="2.4000602722167969e+01" cType="0" res="-9.9000000000000000e+01" rms="0.0000000000000000e+00" purity="4.3867078423500061e-01" nType="0">
          <Node pos="l" depth="2" NCoef="0" IVar="-1" Cut="0.0000000000000000e+00" cType="1" res="-9.9000000000000000e+01" rms="0.0000000000000000e+00" purity="9.7237086296081543e-01" nType="1"/>
          <Node pos="r" depth="2" NCoef="0" IVar="2" Cut="9.8566722869873047e+00" cType="0" res="-9.9000000000000000e+01" rms="0.0000000000000000e+00" purity="4.2094534635543823e-01" nType="0">
            <Node pos="l" depth="3" NCoef="0" IVar="-1" Cut="0.0000000000000000e+00" cType="1" res="-9.9000000000000000e+01" rms="0.0000000000000000e+00" purity="6.1970990896224976e-01" nType="1"/>
            <Node pos="r" depth="3" NCoef="0" IVar="-1" Cut="0.0000000000000000e+00" cType="1" res="-9.9000000000000000e+01" rms="0.0000000000000000e+00" purity="3.0884340405464172e-01" nType="-1"/>
          </Node>
        </Node>
      </Node>
    </BinaryTree>
    <BinaryTree type="DecisionTree" boostWeight="3.8082731806103065e-01" itree="25">
      <Node pos="s" depth="0" NCoef="0" IVar="0" Cut="1.8042978048324585e+00" cType="0" res="-9.9000000000000000e+01" rms="0.0000000000000000e+00" purity="5.5511480569839478e-01" nType="0">
        <Node pos="l" depth="1" NCoef="0" IVar="-1" Cut="2.5704860687255859e+00" cType="0" res="-9.9000000000000000e+01" rms="0.0000000000000000e+00" purity="8.3010506629943848e-01" nType="1"/>
        <Node pos="r" depth="1" NCoef="0" IVar="5" Cut="7.4335536956787109e+00" cType="0" res="-9.9000000000000000e+01" rms="0.0000000000000000e+00" purity="5.0215601921081543e-01" nType="0">
          <Node pos="l" depth="2" NCoef="0" IVar="-1" Cut="1.3651407957077026e+00" cType="0" res="-9.9000000000000000e+01" rms="0.0000000000000000e+00" purity="5.9600859880447388e-01" nType="1"/>
          <Node pos="r" depth="2" NCoef="0" IVar="-1" Cut="3.7934637069702148e-01" cType="0" res="-9.9000000000000000e+01" rms="0.0000000000000000e+00" purity="1.0531689226627350e-01" nType="-1"/>
        </Node>
      </Node>
    </BinaryTree>
    <BinaryTree type="DecisionTree" boostWeight="3.1351651467438596e-01" itree="26">
      <Node pos="s" depth="0" NCoef="0" IVar="1" Cut="8.0754959583282471e-01" cType="0" res="-9.9000000000000000e+01" rms="0.0000000000000000e+00" purity="4.8716789484024048e-01" nType="0">
        <Node pos="l" depth="1" NCoef="0" IVar="-1" Cut="0.0000000000000000e+00" cType="1" res="-9.9000000000000000e+01" rms="0.0000000000000000e+00" purity="8.2155764102935791e-01" nType="1"/>
        <Node pos="r" depth="1" NCoef="0" IVar="0" Cut="2.0815284252166748e+00" cType="0" res="-9.9000000000000000e+01" rms="0.0000000000000000e+00" purity="4.3754589557647705e-01" nType="0">
          <Node pos="l" depth="2" NCoef="0" IVar="-1" Cut="0.0000000000000000e+00" cType="1" res="-9.9000000000000000e+01" rms="0.0000000000000000e+00" purity="7.5573074817657471e-01" nType="1"/>
          <Node pos="r" depth="2" NCoef="0" IVar="4" Cut="1.5992866754531860e+00" cType="1" res="-9.9000000000000000e+01" rms="0.0000000000000000e+00" purity="4.0081554651260376e-01" nType="0">
            <Node pos="l" depth="3" NCoef="0" IVar="-1" Cut="0.0000000000000000e+00" cType="1" res="-9.9000000000000000e+01" rms="0.0000000000000000e+00" purity="5.1037311553955078e-01" nType="1"/>
            <Node pos="r" depth="3" NCoef="0" IVar="-1" Cut="0.0000000000000000e+00" cType="1" res="-9.9000000000000000e+01" rms="0.0000000000000000e+00" purity="2.3340651392936707e-01" nType="-1"/>
          </Node>
        </Node>
      </Node>
    </BinaryTree>
    <BinaryTree type="DecisionTree" boostWeight="3.6646291669451309e-01" itree="27">
      <Node pos="s" depth="0" NCoef="0" IVar="2" Cut="1.7980249404907227e+01" cType="0" res="-9.9000000000000000e+01" rms="0.0000000000000000e+00" purity="4.6586456894874573e-01" nType="0">
        <Node pos="l" depth="1" NCoef="0" IVar="-1" Cut="4.3035429716110229e-01" cType="0" res="-9.9000000000000000e+01" rms="0.0000000000000000e+00" purity="9.6743220090866089e-01" nType="1"/>
        <Node pos="r" depth="1" NCoef="0" IVar="0" Cut="2.2830846309661865e+00" cType="0" res="-9.9000000000000000e+01" rms="0.0000000000000000e+00" purity="4.2640721797943115e-01" nType="0">
          <Node pos="l" depth="2" NCoef="0" IVar="-1" Cut="0.0000000000000000e+00" cType="1" res="-9.9000000000000000e+01" rms="0.0000000000000000e+00" purity="8.3864659070968628e-01" nType="1"/>
          <Node pos="r" depth="2" NCoef="0" IVar="-1" Cut="1.3587620258331299e+00" cType="0" res="-9.9000000000000000e+01" rms="0.0000000000000000e+00" purity="3.7206441164016724e-01" nType="-1"/>
        </Node>
      </Node>
    </BinaryTree>
    <BinaryTree type="DecisionTree" boostWeight="1.4971145372539782e-01" itree="28">
      <Node pos="s" depth="0" NCoef="0" IVar="2" Cut="2.2139768600463867e+01" cType="0" res="-9.9000000000000000e+01" rms="0.0000000000000000e+00" purity="4.8375880718231201e-01" nType="0">
        <Node pos="l" depth="1" NCoef="0" IVar="-1" Cut="0.0000000000000000e+00" cType="1" res="-9.9000000000000000e+01" rms="0.0000000000000000e+00" purity="1.0000000000000000e+00" nType="1"/>
        <Node pos="r" depth="1" NCoef="0" IVar="3" Cut="9.0476280450820923e-01" cType="0" res="-9.9000000000000000e+01" rms="0.0000000000000000e+00" purity="4.6611115336418152e-01" nType="0">
          <Node pos="l" depth="2" NCoef="0" IVar="4" Cut="2.0578517913818359e+00" cType="1" res="-9.9000000000000000e+01" rms="0.0000000000000000e+00" purity="4.8182064294815063e-01" nType="0">
            <Node pos="l" depth="3" NCoef="0" IVar="-1" Cut="0.0000000000000000e+00" cType="1" res="-9.9000000000000000e+01" rms="0.0000000000000000e+00" purity="5.1530110836029053e-01" nType="1"/>
            <Node pos="r" depth="3" NCoef="0" IVar="-1" Cut="0.0000000000000000e+00" cType="1" res="-9.9000000000000000e+01" rms="0.0000000000000000e+00" purity="2.5058197975158691e-01" nType="-1"/>
          </Node>
          <Node pos="r" depth="2" NCoef="0" IVar="-1" Cut="0.0000000000000000e+00" cType="1" res="-9.9000000000000000e+01" rms="0.0000000000000000e+00" purity="0.0000000000000000e+00" nType="-1"/>
        </Node>
      </Node>
    </BinaryTree>
    <BinaryTree type="DecisionTree" boostWeight="5.2803125267368878e-01" itree="29">
      <Node pos="s" depth="0" NCoef="0" IVar="1" Cut="1.9579444825649261e-01" cType="0" res="-9.9000000000000000e+01" rms="0.0000000000000000e+00" purity="5.3620958328247070e-01" nType="0">
        <Node pos="l" depth="1" NCoef="0" IVar="0" Cut="1.1508313417434692e+00" cType="0" res="-9.9000000000000000e+01" rms="0.0000000000000000e+00" purity="6.3330358266830444e-01" nType="0">
          <Node pos="l" depth="2" NCoef="0" IVar="-1" Cut="7.5976163148880005e-01" cType="0" res="-9.9000000000000000e+01" rms="0.0000000000000000e+00" purity="7.1184724569320679e-01" nType="1"/>
          <Node pos="r" depth="2" NCoef="0" IVar="0" Cut="1.0158181190490723e+00" cType="1" res="-9.9000000000000000e+01" rms="0.0000000000000000e+00" purity="5.4620122909545898e-01" nType="0">
            <Node pos="l" depth="3" NCoef="0" IVar="-1" Cut="0.0000000000000000e+00" cType="1" res="-9.9000000000000000e+01" rms="0.0000000000000000e+00" purity="6.7543548345565796e-01" nType="1"/>
            <Node pos="r" depth="3" NCoef="0" IVar="-1" Cut="0.0000000000000000e+00" cType="1" res="-9.9000000000000000e+01" rms="0.0000000000000000e+00" purity="2.6629081368446350e-01" nType="-1"/>
          </Node>
        </Node>
        <Node pos="r" depth="1" NCoef="0" IVar="5" Cut="7.1910037994384766e+00" cType="1" res="-9.9000000000000000e+01" rms="0.0000000000000000e+00" purity="2.7329847216606140e-01" nType="0">
          <Node pos="l" depth="2" NCoef="0" IVar="4" Cut="1.8307640552520752e+00" cType="1" res="-9.9000000000000000e+01" rms="0.0000000000000000e+00" purity="4.8729932308197021e-01" nType="0">
            <Node pos="l" depth="3" NCoef="0" IVar="-1" Cut="0.0000000000000000e+00" cType="1" res="-9.9000000000000000e+01" rms="0.0000000000000000e+00" purity="7.0108568668365479e-01" nType="1"/>
            <Node pos="r" depth="3" NCoef="0" IVar="-1" Cut="0.0000000000000000e+00" cType="1" res="-9.9000000000000000e+01" rms="0.0000000000000000e+00" purity="0.0000000000000000e+00" nType="-1"/>
          </Node>
          <Node pos="r" depth="2" NCoef="0" IVar="2" Cut="1.1611380577087402e+01" cType="0" res="-9.9000000000000000e+01" rms="0.0000000000000000e+00" purity="1.3020597398281097e-01" nType="0">
            <Node pos="l" depth="3" NCoef="0" IVar="-1" Cut="0.0000000000000000e+00" cType="1" res="-9.9000000000000000e+01" rms="0.0000000000000000e+00" purity="5.2656245231628418e-01" nType="1"/>
            <Node pos="r" depth="3" NCoef="0" IVar="-1" Cut="0.0000000000000000e+00" cType="1" res="-9.9000000000000000e+01" rms="0.0000000000000000e+00" purity="1.1993203079327941e-03" nType="-1"/>
          </Node>
        </Node>
      </Node>
    </BinaryTree>
    <BinaryTree type="DecisionTree" boostWeight="3.2902423402019321e-01" itree="30">
      <Node pos="s" depth="0" NCoef="0" IVar="0" Cut="1.0118756294250488e+00" cType="0" res="-9.9000000000000000e+01" rms="0.0000000000000000e+00" purity="4.7163701057434082e-01" nType="0">
        <Node pos="l" depth="1" NCoef="0" IVar="4" Cut="2.0528728961944580e+00" cType="1" res="-9.9000000000000000e+01" rms="0.0000000000000000e+00" purity="5.4551500082015991e-01" nType="0">
          <Node pos="l" depth="2" NCoef="0" IVar="-1" Cut="1.0102159500122070e+01" cType="0" res="-9.9000000000000000e+01" rms="0.0000000000000000e+00" purity="5.9790837764739990e-01" nType="1"/>
          <Node pos="r" depth="2" NCoef="0" IVar="-1" Cut="3.7723419070243835e-01" cType="0" res="-9.9000000000000000e+01" rms="0.0000000000000000e+00" purity="2.2268903255462646e-01" nType="-1"/>
        </Node>
        <Node pos="r" depth="1" NCoef="0" IVar="-1" Cut="4.4504895806312561e-01" cType="0" res="-9.9000000000000000e+01" rms="0.0000000000000000e+00" purity="2.1810589730739594e-01" nType="-1"/>
      </Node>
    </BinaryTree>
    <BinaryTree type="DecisionTree" boostWeight="3.1601527552534497e-01" itree="31">
      <Node pos="s" depth="0" NCoef="0" IVar="5" Cut="6.6382694244384766e+00" cType="1" res="-9.9000000000000000e+01" rms="0.0000000000000000e+00" purity="4.5589751005172729e-01" nType="0">
        <Node pos="l" depth="1" NCoef="0" IVar="1" Cut="2.9407617449760437e-01" cType="0" res="-9.9000000000000000e+01" rms="0.0000000000000000e+00" purity="7.9566586017608643e-01" nType="0">
          <Node pos="l" depth="2" NCoef="0" IVar="-1" Cut="0.0000000000000000e+00" cType="1" res="-9.9000000000000000e+01" rms="0.0000000000000000e+00" purity="9.3277835845947266e-01" nType="1"/>
          <Node pos="r" depth="2" NCoef="0" IVar="-1" Cut="0.0000000000000000e+00" cType="1" res="-9.9000000000000000e+01" rms="0.0000000000000000e+00" purity="4.5753043889999390e-01" nType="-1"/>
        </Node>
        <Node pos="r" depth="1" NCoef="0" IVar="0" Cut="1.0000067949295044e+00" cType="0" res="-9.9000000000000000e+01" rms="0.0000000000000000e+00" purity="4.0376749634742737e-01" nType="0">
          <Node pos="l" depth="2" NCoef="0" IVar="2" Cut="1.7782619476318359e+01" cType="0" res="-9.9000000000000000e+01" rms="0.0000000000000000e+00" purity="4.5169317722320557e-01" nType="0">
            <Node pos="l" depth="3" NCoef="0" IVar="-1" Cut="0.0000000000000000e+00" cType="1" res="-9.9000000000000000e+01" rms="0.0000000000000000e+00" purity="1.0000000000000000e+00" nType="1"/>
            <Node pos="r" depth="3" NCoef="0" IVar="-1" Cut="0.0000000000000000e+00" cType="1" res="-9.9000000000000000e+01" rms="0.0000000000000000e+00" purity="4.2950597405433655e-01" nType="-1"/>
          </Node>
          <Node pos="r" depth="2" NCoef="0" IVar="-1" Cut="8.4803628921508789e+00" cType="1" res="-9.9000000000000000e+01" rms="0.0000000000000000e+00" purity="2.1366418898105621e-01" nType="-1"/>
        </Node>
      </Node>
    </BinaryTree>
    <BinaryTree type="DecisionTree" boostWeight="1.7442420195544500e-01" itree="32">
      <Node pos="s" depth="0" NCoef="0" IVar="4" Cut="1.2462993711233139e-01" cType="0" res="-9.9000000000000000e+01" rms="0.0000000000000000e+00" purity="4.6114382147789001e-01" nType="0">
        <Node pos="l" depth="1" NCoef="0" IVar="2" Cut="1.6600881576538086e+01" cType="0" res="-9.9000000000000000e+01" rms="0.0000000000000000e+00" purity="4.9094426631927490e-01" nType="0">
          <Node pos="l" depth="2" NCoef="0" IVar="-1" Cut="4.2907160520553589e-01" cType="0" res="-9.9000000000000000e+01" rms="0.0000000000000000e+00" purity="8.9496284723281860e-01" nType="1"/>
          <Node pos="r" depth="2" NCoef="0" IVar="-1" Cut="9.0476280450820923e-01" cType="0" res="-9.9000000000000000e+01" rms="0.0000000000000000e+00" purity="4.6332183480262756e-01" nType="-1"/>
        </Node>
        <Node pos="r" depth="1" NCoef="0" IVar="-1" Cut="0.0000000000000000e+00" cType="1" res="-9.9000000000000000e+01" rms="0.0000000000000000e+00" purity="0.0000000000000000e+00" nType="-1"/>
      </Node>
    </BinaryTree>
    <BinaryTree type="DecisionTree" boostWeight="4.0232895552106285e-01" itree="33">
      <Node pos="s" depth="0" NCoef="0" IVar="3" Cut="9.0476328134536743e-01" cType="0" res="-9.9000000000000000e+01" rms="0.0000000000000000e+00" purity="4.7804480791091919e-01" nType="0">
        <Node pos="l" depth="1" NCoef="0" IVar="4" Cut="1.4883540868759155e+00" cType="1" res="-9.9000000000000000e+01" rms="0.0000000000000000e+00" purity="5.0944513082504272e-01" nType="0">
          <Node pos="l" depth="2" NCoef="0" IVar="0" Cut="1.2309234142303467e+00" cType="0" res="-9.9000000000000000e+01" rms="0.0000000000000000e+00" purity="6.3215821981430054e-01" nType="0">
            <Node pos="l" depth="3" NCoef="0" IVar="-1" Cut="0.0000000000000000e+00" cType="1" res="-9.9000000000000000e+01" rms="0.0000000000000000e+00" purity="8.1964802742004395e-01" nType="1"/>
            <Node pos="r" depth="3" NCoef="0" IVar="-1" Cut="0.0000000000000000e+00" cType="1" res="-9.9000000000000000e+01" rms="0.0000000000000000e+00" purity="4.7990074753761292e-01" nType="-1"/>
          </Node>
          <Node pos="r" depth="2" NCoef="0" IVar="2" Cut="1.5162343978881836e+01" cType="0" res="-9.9000000000000000e+01" rms="0.0000000000000000e+00" purity="4.2010676860809326e-01" nType="0">
            <Node pos="l" depth="3" NCoef="0" IVar="-1" Cut="0.0000000000000000e+00" cType="1" res="-9.9000000000000000e+01" rms="0.0000000000000000e+00" purity="8.6974006891250610e-01" nType="1"/>
            <Node pos="r" depth="3" NCoef="0" IVar="-1" Cut="0.0000000000000000e+00" cType="1" res="-9.9000000000000000e+01" rms="0.0000000000000000e+00" purity="3.4761732816696167e-01" nType="-1"/>
          </Node>
        </Node>
        <Node pos="r" depth="1" NCoef="0" IVar="-1" Cut="0.0000000000000000e+00" cType="1" res="-9.9000000000000000e+01" rms="0.0000000000000000e+00" purity="0.0000000000000000e+00" nType="-1"/>
      </Node>
    </BinaryTree>
    <BinaryTree type="DecisionTree" boostWeight="3.1408385926416199e-01" itree="34">
      <Node pos="s" depth="0" NCoef="0" IVar="3" Cut="9.0476197004318237e-01" cType="0" res="-9.9000000000000000e+01" rms="0.0000000000000000e+00" purity="5.2414554357528687e-01" nType="0">
        <Node pos="l" depth="1" NCoef="0" IVar="3" Cut="9.9562579393386841e-01" cType="0" res="-9.9000000000000000e+01" rms="0.0000000000000000e+00" purity="5.4736179113388062e-01" nType="0">
          <Node pos="l" depth="2" NCoef="0" IVar="4" Cut="1.1457493305206299e+00" cType="0" res="-9.9000000000000000e+01" rms="0.0000000000000000e+00" purity="5.9763443470001221e-01" nType="0">
            <Node pos="l" depth="3" NCoef="0" IVar="-1" Cut="0.0000000000000000e+00" cType="1" res="-9.9000000000000000e+01" rms="0.0000000000000000e+00" purity="6.8445318937301636e-01" nType="1"/>
            <Node pos="r" depth="3" NCoef="0" IVar="-1" Cut="0.0000000000000000e+00" cType="1" res="-9.9000000000000000e+01" rms="0.0000000000000000e+00" purity="4.8747864365577698e-01" nType="-1"/>
          </Node>
          <Node pos="r" depth="2" NCoef="0" IVar="0" Cut="1.6150901317596436e+00" cType="0" res="-9.9000000000000000e+01" rms="0.0000000000000000e+00" purity="3.5375952720642090e-01" nType="0">
            <Node pos="l" depth="3" NCoef="0" IVar="-1" Cut="0.0000000000000000e+00" cType="1" res="-9.9000000000000000e+01" rms="0.0000000000000000e+00" purity="6.3534468412399292e-01" nType="1"/>
            <Node pos="r" depth="3" NCoef="0" IVar="-1" Cut="0.0000000000000000e+00" cType="1" res="-9.9000000000000000e+01" rms="0.0000000000000000e+00" purity="1.9340914487838745e-01" nType="-1"/>
          </Node>
        </Node>
        <Node pos="r" depth="1" NCoef="0" IVar="-1" Cut="0.0000000000000000e+00" cType="1" res="-9.9000000000000000e+01" rms="0.0000000000000000e+00" purity="0.0000000000000000e+00" nType="-1"/>
      </Node>
    </BinaryTree>
    <BinaryTree type="DecisionTree" boostWeight="3.7715806448597639e-01" itree="35">
      <Node pos="s" depth="0" NCoef="0" IVar="0" Cut="9.8138153553009033e-01" cType="0" res="-9.9000000000000000e+01" rms="0.0000000000000000e+00" purity="4.9428984522819519e-01" nType="0">
        <Node pos="l" depth="1" NCoef="0" IVar="3" Cut="9.0476828813552856e-01" cType="0" res="-9.9000000000000000e+01" rms="0.0000000000000000e+00" purity="5.5996412038803101e-01" nType="0">
          <Node pos="l" depth="2" NCoef="0" IVar="3" Cut="9.7375458478927612e-01" cType="0" res="-9.9000000000000000e+01" rms="0.0000000000000000e+00" purity="5.8039969205856323e-01" nType="0">
            <Node pos="l" depth="3" NCoef="0" IVar="-1" Cut="0.0000000000000000e+00" cType="1" res="-9.9000000000000000e+01" rms="0.0000000000000000e+00" purity="6.1270505189895630e-01" nType="1"/>
            <Node pos="r" depth="3" NCoef="0" IVar="-1" Cut="0.0000000000000000e+00" cType="1" res="-9.9000000000000000e+01" rms="0.0000000000000000e+00" purity="1.4167346060276031e-01" nType="-1"/>
          </Node>
          <Node pos="r" depth="2" NCoef="0" IVar="-1" Cut="0.0000000000000000e+00" cType="1" res="-9.9000000000000000e+01" rms="0.0000000000000000e+00" purity="0.0000000000000000e+00" nType="-1"/>
        </Node>
        <Node pos="r" depth="1" NCoef="0" IVar="-1" Cut="8.3348608016967773e+00" cType="0" res="-9.9000000000000000e+01" rms="0.0000000000000000e+00" purity="8.7393164634704590e-02" nType="-1"/>
      </Node>
    </BinaryTree>
    <BinaryTree type="DecisionTree" boostWeight="5.5361578482437834e-01" itree="36">
      <Node pos="s" depth="0" NCoef="0" IVar="4" Cut="1.9382004737854004e+00" cType="1" res="-9.9000000000000000e+01" rms="0.0000000000000000e+00" purity="4.6360746026039124e-01" nType="0">
        <Node pos="l" depth="1" NCoef="0" IVar="1" Cut="6.7001575231552124e-01" cType="1" res="-9.9000000000000000e+01" rms="0.0000000000000000e+00" purity="5.4477411508560181e-01" nType="0">
          <Node pos="l" depth="2" NCoef="0" IVar="4" Cut="1.8611276149749756e-01" cType="0" res="-9.9000000000000000e+01" rms="0.0000000000000000e+00" purity="6.3627016544342041e-01" nType="0">
            <Node pos="l" depth="3" NCoef="0" IVar="-1" Cut="0.0000000000000000e+00" cType="1" res="-9.9000000000000000e+01" rms="0.0000000000000000e+00" purity="6.7160367965698242e-01" nType="1"/>
            <Node pos="r" depth="3" NCoef="0" IVar="-1" Cut="0.0000000000000000e+00" cType="1" res="-9.9000000000000000e+01" rms="0.0000000000000000e+00" purity="7.6447673141956329e-02" nType="-1"/>
          </Node>
          <Node pos="r" depth="2" NCoef="0" IVar="0" Cut="1.3942643404006958e+00" cType="0" res="-9.9000000000000000e+01" rms="0.0000000000000000e+00" purity="2.6374503970146179e-01" nType="0">
            <Node pos="l" depth="3" NCoef="0" IVar="-1" Cut="0.0000000000000000e+00" cType="1" res="-9.9000000000000000e+01" rms="0.0000000000000000e+00" purity="8.0011361837387085e-01" nType="1"/>
            <Node pos="r" depth="3" NCoef="0" IVar="-1" Cut="0.0000000000000000e+00" cType="1" res="-9.9000000000000000e+01" rms="0.0000000000000000e+00" purity="7.3340713977813721e-02" nType="-1"/>
          </Node>
        </Node>
        <Node pos="r" depth="1" NCoef="0" IVar="-1" Cut="5.5833792686462402e-01" cType="0" res="-9.9000000000000000e+01" rms="0.0000000000000000e+00" purity="2.0265960693359375e-01" nType="-1"/>
      </Node>
    </BinaryTree>
    <BinaryTree type="DecisionTree" boostWeight="4.2711694770773384e-01" itree="37">
      <Node pos="s" depth="0" NCoef="0" IVar="1" Cut="2.9289564490318298e-01" cType="0" res="-9.9000000000000000e+01" rms="0.0000000000000000e+00" purity="4.1753637790679932e-01" nType="0">
        <Node pos="l" depth="1" NCoef="0" IVar="5" Cut="6.6007347106933594e+00" cType="1" res="-9.9000000000000000e+01" rms="0.0000000000000000e+00" purity="4.8846846818923950e-01" nType="0">
          <Node pos="l" depth="2" NCoef="0" IVar="-1" Cut="0.0000000000000000e+00" cType="1" res="-9.9000000000000000e+01" rms="0.0000000000000000e+00" purity="9.3341398239135742e-01" nType="1"/>
          <Node pos="r" depth="2" NCoef="0" IVar="1" Cut="4.2918419837951660e-01" cType="1" res="-9.9000000000000000e+01" rms="0.0000000000000000e+00" purity="4.5188692212104797e-01" nType="0">
            <Node pos="l" depth="3" NCoef="0" IVar="-1" Cut="0.0000000000000000e+00" cType="1" res="-9.9000000000000000e+01" rms="0.0000000000000000e+00" purity="6.5798521041870117e-01" nType="1"/>
            <Node pos="r" depth="3" NCoef="0" IVar="-1" Cut="0.0000000000000000e+00" cType="1" res="-9.9000000000000000e+01" rms="0.0000000000000000e+00" purity="3.9883241057395935e-01" nType="-1"/>
          </Node>
        </Node>
        <Node pos="r" depth="1" NCoef="0" IVar="4" Cut="1.4854310750961304e+00" cType="1" res="-9.9000000000000000e+01" rms="0.0000000000000000e+00" purity="2.7335494756698608e-01" nType="0">
          <Node pos="l" depth="2" NCoef="0" IVar="2" Cut="8.7383718490600586e+00" cType="0" res="-9.9000000000000000e+01" rms="0.0000000000000000e+00" purity="4.2588219046592712e-01" nType="0">
            <Node pos="l" depth="3" NCoef="0" IVar="-1" Cut="0.0000000000000000e+00" cType="1" res="-9.9000000000000000e+01" rms="0.0000000000000000e+00" purity="7.2242188453674316e-01" nType="1"/>
            <Node pos="r" depth="3" NCoef="0" IVar="-1" Cut="0.0000000000000000e+00" cType="1" res="-9.9000000000000000e+01" rms="0.0000000000000000e+00" purity="1.6067902743816376e-01" nType="-1"/>
          </Node>
          <Node pos="r" depth="2" NCoef="0" IVar="-1" Cut="1.5747479200363159e+00" cType="1" res="-9.9000000000000000e+01" rms="0.0000000000000000e+00" purity="1.1937138438224792e-01" nType="-1"/>
        </Node>
      </Node>
    </BinaryTree>
    <BinaryTree type="DecisionTree" boostWeight="1.9558525550450717e-01" itree="38">
      <Node pos="s" depth="0" NCoef="0" IVar="3" Cut="9.0476191043853760e-01" cType="0" res="-9.9000000000000000e+01" rms="0.0000000000000000e+00" purity="5.1779580116271973e-01" nType="0">
        <Node pos="l" depth="1" NCoef="0" IVar="3" Cut="9.7329342365264893e-01" cType="0" res="-9.9000000000000000e+01" rms="0.0000000000000000e+00" purity="5.3599488735198975e-01" nType="0">
          <Node pos="l" depth="2" NCoef="0" IVar="-1" Cut="1.6279867887496948e+00" cType="0" res="-9.9000000000000000e+01" rms="0.0000000000000000e+00" purity="5.6280022859573364e-01" nType="1"/>
          <Node pos="r" depth="2" NCoef="0" IVar="-1" Cut="7.5536298751831055e+00" cType="0" res="-9.9000000000000000e+01" rms="0.0000000000000000e+00" purity="9.6539422869682312e-02" nType="-1"/>
        </Node>
        <Node pos="r" depth="1" NCoef="0" IVar="-1" Cut="0.0000000000000000e+00" cType="1" res="-9.9000000000000000e+01" rms="0.0000000000000000e+00" purity="0.0000000000000000e+00" nType="-1"/>
      </Node>
    </BinaryTree>
    <BinaryTree type="DecisionTree" boostWeight="5.8719811097004382e-01" itree="39">
      <Node pos="s" depth="0" NCoef="0" IVar="1" Cut="7.6285666227340698e-01" cType="0" res="-9.9000000000000000e+01" rms="0.0000000000000000e+00" purity="3.6644402146339417e-01" nType="0">
        <Node pos="l" depth="1" NCoef="0" IVar="-1" Cut="1.9197672605514526e+00" cType="1" res="-9.9000000000000000e+01" rms="0.0000000000000000e+00" purity="7.9159820079803467e-01" nType="1"/>
        <Node pos="r" depth="1" NCoef="0" IVar="0" Cut="2.2252380847930908e+00" cType="0" res="-9.9000000000000000e+01" rms="0.0000000000000000e+00" purity="2.6371255517005920e-01" nType="0">
          <Node pos="l" depth="2" NCoef="0" IVar="-1" Cut="0.0000000000000000e+00" cType="1" res="-9.9000000000000000e+01" rms="0.0000000000000000e+00" purity="6.0850495100021362e-01" nType="1"/>
          <Node pos="r" depth="2" NCoef="0" IVar="-1" Cut="3.6574947834014893e-01" cType="0" res="-9.9000000000000000e+01" rms="0.0000000000000000e+00" purity="2.2683501243591309e-01" nType="-1"/>
        </Node>
      </Node>
    </BinaryTree>
    <BinaryTree type="DecisionTree" boostWeight="4.3219712438604407e-01" itree="40">
      <Node pos="s" depth="0" NCoef="0" IVar="1" Cut="3.8724789023399353e-01" cType="0" res="-9.9000000000000000e+01" rms="0.0000000000000000e+00" purity="4.5099690556526184e-01" nType="0">
        <Node pos="l" depth="1" NCoef="0" IVar="3" Cut="8.0952399969100952e-01" cType="0" res="-9.9000000000000000e+01" rms="0.0000000000000000e+00" purity="5.5882418155670166e-01" nType="0">
          <Node pos="l" depth="2" NCoef="0" IVar="4" Cut="1.9383772611618042e+00" cType="1" res="-9.9000000000000000e+01" rms="0.0000000000000000e+00" purity="5.9254544973373413e-01" nType="0">
            <Node pos="l" depth="3" NCoef="0" IVar="-1" Cut="0.0000000000000000e+00" cType="1" res="-9.9000000000000000e+01" rms="0.0000000000000000e+00" purity="6.5701043605804443e-01" nType="1"/>
            <Node pos="r" depth="3" NCoef="0" IVar="-1" Cut="0.0000000000000000e+00" cType="1" res="-9.9000000000000000e+01" rms="0.0000000000000000e+00" purity="3.5855913162231445e-01" nType="-1"/>
          </Node>
          <Node pos="r" depth="2" NCoef="0" IVar="-1" Cut="0.0000000000000000e+00" cType="1" res="-9.9000000000000000e+01" rms="0.0000000000000000e+00" purity="0.0000000000000000e+00" nType="-1"/>
        </Node>
        <Node pos="r" depth="1" NCoef="0" IVar="2" Cut="1.1339447975158691e+01" cType="0" res="-9.9000000000000000e+01" rms="0.0000000000000000e+00" purity="3.1202766299247742e-01" nType="0">
          <Node pos="l" depth="2" NCoef="0" IVar="0" Cut="1.0923612117767334e+00" cType="0" res="-9.9000000000000000e+01" rms="0.0000000000000000e+00" purity="5.0802147388458252e-01" nType="0">
            <Node pos="l" depth="3" NCoef="0" IVar="-1" Cut="0.0000000000000000e+00" cType="1" res="-9.9000000000000000e+01" rms="0.0000000000000000e+00" purity="6.6053509712219238e-01" nType="1"/>
            <Node pos="r" depth="3" NCoef="0" IVar="-1" Cut="0.0000000000000000e+00" cType="1" res="-9.9000000000000000e+01" rms="0.0000000000000000e+00" purity="3.5089483857154846e-01" nType="-1"/>
          </Node>
          <Node pos="r" depth="2" NCoef="0" IVar="-1" Cut="1.7136898040771484e+00" cType="1" res="-9.9000000000000000e+01" rms="0.0000000000000000e+00" purity="2.1336762607097626e-01" nType="-1"/>
        </Node>
      </Node>
    </BinaryTree>
    <BinaryTree type="DecisionTree" boostWeight="4.9679060052276375e-01" itree="41">
      <Node pos="s" depth="0" NCoef="0" IVar="1" Cut="1.5150247514247894e-01" cType="0" res="-9.9000000000000000e+01" rms="0.0000000000000000e+00" purity="3.9331451058387756e-01" nType="0">
        <Node pos="l" depth="1" NCoef="0" IVar="5" Cut="8.1294412612915039e+00" cType="1" res="-9.9000000000000000e+01" rms="0.0000000000000000e+00" purity="4.7752714157104492e-01" nType="0">
          <Node pos="l" depth="2" NCoef="0" IVar="2" Cut="9.6734800338745117e+00" cType="0" res="-9.9000000000000000e+01" rms="0.0000000000000000e+00" purity="5.9937322139739990e-01" nType="0">
            <Node pos="l" depth="3" NCoef="0" IVar="-1" Cut="0.0000000000000000e+00" cType="1" res="-9.9000000000000000e+01" rms="0.0000000000000000e+00" purity="8.0870360136032104e-01" nType="1"/>
            <Node pos="r" depth="3" NCoef="0" IVar="-1" Cut="0.0000000000000000e+00" cType="1" res="-9.9000000000000000e+01" rms="0.0000000000000000e+00" purity="4.6139186620712280e-01" nType="-1"/>
          </Node>
          <Node pos="r" depth="2" NCoef="0" IVar="4" Cut="8.0427241325378418e-01" cType="1" res="-9.9000000000000000e+01" rms="0.0000000000000000e+00" purity="2.6902711391448975e-01" nType="0">
            <Node pos="l" depth="3" NCoef="0" IVar="-1" Cut="0.0000000000000000e+00" cType="1" res="-9.9000000000000000e+01" rms="0.0000000000000000e+00" purity="5.4424011707305908e-01" nType="1"/>
            <Node pos="r" depth="3" NCoef="0" IVar="-1" Cut="0.0000000000000000e+00" cType="1" res="-9.9000000000000000e+01" rms="0.0000000000000000e+00" purity="2.0327624678611755e-01" nType="-1"/>
          </Node>
        </Node>
        <Node pos="r" depth="1" NCoef="0" IVar="5" Cut="7.0243229866027832e+00" cType="1" res="-9.9000000000000000e+01" rms="0.0000000000000000e+00" purity="1.3014630973339081e-01" nType="0">
          <Node pos="l" depth="2" NCoef="0" IVar="-1" Cut="0.0000000000000000e+00" cType="1" res="-9.9000000000000000e+01" rms="0.0000000000000000e+00" purity="5.1708430051803589e-01" nType="1"/>
          <Node pos="r" depth="2" NCoef="0" IVar="-1" Cut="8.4572038650512695e+00" cType="0" res="-9.9000000000000000e+01" rms="0.0000000000000000e+00" purity="7.3488481342792511e-02" nType="-1"/>
        </Node>
      </Node>
    </BinaryTree>
    <BinaryTree type="DecisionTree" boostWeight="4.7536401010522511e-01" itree="42">
      <Node pos="s" depth="0" NCoef="0" IVar="1" Cut="2.9149964451789856e-01" cType="0" res="-9.9000000000000000e+01" rms="0.0000000000000000e+00" purity="4.7841122746467590e-01" nType="0">
        <Node pos="l" depth="1" NCoef="0" IVar="4" Cut="2.1644721031188965e+00" cType="1" res="-9.9000000000000000e+01" rms="0.0000000000000000e+00" purity="6.1971879005432129e-01" nType="0">
          <Node pos="l" depth="2" NCoef="0" IVar="-1" Cut="1.2423979043960571e+00" cType="0" res="-9.9000000000000000e+01" rms="0.0000000000000000e+00" purity="6.6174679994583130e-01" nType="1"/>
          <Node pos="r" depth="2" NCoef="0" IVar="-1" Cut="0.0000000000000000e+00" cType="1" res="-9.9000000000000000e+01" rms="0.0000000000000000e+00" purity="2.3445671796798706e-01" nType="-1"/>
        </Node>
        <Node pos="r" depth="1" NCoef="0" IVar="-1" Cut="1.8328716754913330e+00" cType="0" res="-9.9000000000000000e+01" rms="0.0000000000000000e+00" purity="1.7173069715499878e-01" nType="-1"/>
      </Node>
    </BinaryTree>
    <BinaryTree type="DecisionTree" boostWeight="4.5750982557049763e-01" itree="43">
      <Node pos="s" depth="0" NCoef="0" IVar="4" Cut="8.0733436346054077e-01" cType="1" res="-9.9000000000000000e+01" rms="0.0000000000000000e+00" purity="4.0801298618316650e-01" nType="0">
        <Node pos="l" depth="1" NCoef="0" IVar="5" Cut="7.9403767585754395e+00" cType="0" res="-9.9000000000000000e+01" rms="0.0000000000000000e+00" purity="5.7619822025299072e-01" nType="0">
          <Node pos="l" depth="2" NCoef="0" IVar="5" Cut="8.4515104293823242e+00" cType="0" res="-9.9000000000000000e+01" rms="0.0000000000000000e+00" purity="7.3104482889175415e-01" nType="0">
            <Node pos="l" depth="3" NCoef="0" IVar="-1" Cut="0.0000000000000000e+00" cType="1" res="-9.9000000000000000e+01" rms="0.0000000000000000e+00" purity="9.0260004997253418e-01" nType="1"/>
            <Node pos="r" depth="3" NCoef="0" IVar="-1" Cut="0.0000000000000000e+00" cType="1" res="-9.9000000000000000e+01" rms="0.0000000000000000e+00" purity="4.9211314320564270e-01" nType="-1"/>
          </Node>
          <Node pos="r" depth="2" NCoef="0" IVar="-1" Cut="3.3349978923797607e-01" cType="0" res="-9.9000000000000000e+01" rms="0.0000000000000000e+00" purity="1.5379516780376434e-01" nType="-1"/>
        </Node>
        <Node pos="r" depth="1" NCoef="0" IVar="1" Cut="5.2770543098449707e-01" cType="0" res="-9.9000000000000000e+01" rms="0.0000000000000000e+00" purity="3.5117992758750916e-01" nType="0">
          <Node pos="l" depth="2" NCoef="0" IVar="2" Cut="1.0589935302734375e+01" cType="1" res="-9.9000000000000000e+01" rms="0.0000000000000000e+00" purity="4.6029165387153625e-01" nType="0">
            <Node pos="l" depth="3" NCoef="0" IVar="-1" Cut="0.0000000000000000e+00" cType="1" res="-9.9000000000000000e+01" rms="0.0000000000000000e+00" purity="5.8807063102722168e-01" nType="1"/>
            <Node pos="r" depth="3" NCoef="0" IVar="-1" Cut="0.0000000000000000e+00" cType="1" res="-9.9000000000000000e+01" rms="0.0000000000000000e+00" purity="1.7028956115245819e-01" nType="-1"/>
          </Node>
          <Node pos="r" depth="2" NCoef="0" IVar="-1" Cut="4.0275880694389343e-01" cType="1" res="-9.9000000000000000e+01" rms="0.0000000000000000e+00" purity="2.8213244676589966e-01" nType="-1"/>
        </Node>
      </Node>
    </BinaryTree>
    <BinaryTree type="DecisionTree" boostWeight="2.4768403943814649e-01" itree="44">
      <Node pos="s" depth="0" NCoef="0" IVar="2" Cut="1.6601175308227539e+01" cType="0" res="-9.9000000000000000e+01" rms="0.0000000000000000e+00" purity="4.4994661211967468e-01" nType="0">
        <Node pos="l" depth="1" NCoef="0" IVar="-1" Cut="0.0000000000000000e+00" cType="1" res="-9.9000000000000000e+01" rms="0.0000000000000000e+00" purity="9.0999227762222290e-01" nType="1"/>
        <Node pos="r" depth="1" NCoef="0" IVar="1" Cut="8.0754959583282471e-01" cType="1" res="-9.9000000000000000e+01" rms="0.0000000000000000e+00" purity="4.0968492627143860e-01" nType="0">
          <Node pos="l" depth="2" NCoef="0" IVar="5" Cut="8.9776420593261719e+00" cType="1" res="-9.9000000000000000e+01" rms="0.0000000000000000e+00" purity="4.6612834930419922e-01" nType="0">
            <Node pos="l" depth="3" NCoef="0" IVar="-1" Cut="0.0000000000000000e+00" cType="1" res="-9.9000000000000000e+01" rms="0.0000000000000000e+00" purity="5.0388443470001221e-01" nType="1"/>
            <Node pos="r" depth="3" NCoef="0" IVar="-1" Cut="0.0000000000000000e+00" cType="1" res="-9.9000000000000000e+01" rms="0.0000000000000000e+00" purity="1.4321067929267883e-01" nType="-1"/>
          </Node>
          <Node pos="r" depth="2" NCoef="0" IVar="-1" Cut="0.0000000000000000e+00" cType="1" res="-9.9000000000000000e+01" rms="0.0000000000000000e+00" purity="1.2760554254055023e-01" nType="-1"/>
        </Node>
      </Node>
    </BinaryTree>
    <BinaryTree type="DecisionTree" boostWeight="3.8351513966467998e-01" itree="45">
      <Node pos="s" depth="0" NCoef="0" IVar="4" Cut="6.8593907356262207e-01" cType="0" res="-9.9000000000000000e+01" rms="0.0000000000000000e+00" purity="4.4064426422119141e-01" nType="0">
        <Node pos="l" depth="1" NCoef="0" IVar="1" Cut="5.2858227491378784e-01" cType="0" res="-9.9000000000000000e+01" rms="0.0000000000000000e+00" purity="4.8181733489036560e-01" nType="0">
          <Node pos="l" depth="2" NCoef="0" IVar="-1" Cut="6.6504067182540894e-01" cType="1" res="-9.9000000000000000e+01" rms="0.0000000000000000e+00" purity="6.3170570135116577e-01" nType="1"/>
          <Node pos="r" depth="2" NCoef="0" IVar="4" Cut="1.0144966840744019e+00" cType="1" res="-9.9000000000000000e+01" rms="0.0000000000000000e+00" purity="3.9239761233329773e-01" nType="0">
            <Node pos="l" depth="3" NCoef="0" IVar="-1" Cut="0.0000000000000000e+00" cType="1" res="-9.9000000000000000e+01" rms="0.0000000000000000e+00" purity="6.9894331693649292e-01" nType="1"/>
            <Node pos="r" depth="3" NCoef="0" IVar="-1" Cut="0.0000000000000000e+00" cType="1" res="-9.9000000000000000e+01" rms="0.0000000000000000e+00" purity="3.2200241088867188e-01" nType="-1"/>
          </Node>
        </Node>
        <Node pos="r" depth="1" NCoef="0" IVar="-1" Cut="1.3034304380416870e+00" cType="0" res="-9.9000000000000000e+01" rms="0.0000000000000000e+00" purity="2.0349094271659851e-01" nType="-1"/>
      </Node>
    </BinaryTree>
    <BinaryTree type="DecisionTree" boostWeight="3.5812440400562123e-01" itree="46">
      <Node pos="s" depth="0" NCoef="0" IVar="3" Cut="9.0476268529891968e-01" cType="0" res="-9.9000000000000000e+01" rms="0.0000000000000000e+00" purity="5.5164635181427002e-01" nType="0">
        <Node pos="l" depth="1" NCoef="0" IVar="3" Cut="9.9124479293823242e-01" cType="0" res="-9.9000000000000000e+01" rms="0.0000000000000000e+00" purity="5.6947612762451172e-01" nType="0">
          <Node pos="l" depth="2" NCoef="0" IVar="5" Cut="8.1989536285400391e+00" cType="1" res="-9.9000000000000000e+01" rms="0.0000000000000000e+00" purity="6.1405766010284424e-01" nType="0">
            <Node pos="l" depth="3" NCoef="0" IVar="-1" Cut="0.0000000000000000e+00" cType="1" res="-9.9000000000000000e+01" rms="0.0000000000000000e+00" purity="6.7239505052566528e-01" nType="1"/>
            <Node pos="r" depth="3" NCoef="0" IVar="-1" Cut="0.0000000000000000e+00" cType="1" res="-9.9000000000000000e+01" rms="0.0000000000000000e+00" purity="4.5781597495079041e-01" nType="-1"/>
          </Node>
          <Node pos="r" depth="2" NCoef="0" IVar="5" Cut="8.4425725936889648e+00" cType="0" res="-9.9000000000000000e+01" rms="0.0000000000000000e+00" purity="3.1344878673553467e-01" nType="0">
            <Node pos="l" depth="3" NCoef="0" IVar="-1" Cut="0.0000000000000000e+00" cType="1" res="-9.9000000000000000e+01" rms="0.0000000000000000e+00" purity="6.6704142093658447e-01" nType="1"/>
            <Node pos="r" depth="3" NCoef="0" IVar="-1" Cut="0.0000000000000000e+00" cType="1" res="-9.9000000000000000e+01" rms="0.0000000000000000e+00" purity="1.3158422708511353e-01" nType="-1"/>
          </Node>
        </Node>
        <Node pos="r" depth="1" NCoef="0" IVar="-1" Cut="0.0000000000000000e+00" cType="1" res="-9.9000000000000000e+01" rms="0.0000000000000000e+00" purity="0.0000000000000000e+00" nType="-1"/>
      </Node>
    </BinaryTree>
    <BinaryTree type="DecisionTree" boostWeight="2.3194441060472895e-01" itree="47">
      <Node pos="s" depth="0" NCoef="0" IVar="2" Cut="2.4918550491333008e+01" cType="0" res="-9.9000000000000000e+01" rms="0.0000000000000000e+00" purity="4.1508460044860840e-01" nType="0">
        <Node pos="l" depth="1" NCoef="0" IVar="-1" Cut="0.0000000000000000e+00" cType="1" res="-9.9000000000000000e+01" rms="0.0000000000000000e+00" purity="1.0000000000000000e+00" nType="1"/>
        <Node pos="r" depth="1" NCoef="0" IVar="-1" Cut="5.6796304881572723e-02" cType="0" res="-9.9000000000000000e+01" rms="0.0000000000000000e+00" purity="3.9760249853134155e-01" nType="-1"/>
      </Node>
    </BinaryTree>
    <BinaryTree type="DecisionTree" boostWeight="4.2406705816129875e-01" itree="48">
      <Node pos="s" depth="0" NCoef="0" IVar="2" Cut="9.6617469787597656e+00" cType="0" res="-9.9000000000000000e+01" rms="0.0000000000000000e+00" purity="5.3843379020690918e-01" nType="0">
        <Node pos="l" depth="1" NCoef="0" IVar="5" Cut="8.7701826095581055e+00" cType="0" res="-9.9000000000000000e+01" rms="0.0000000000000000e+00" purity="6.9740408658981323e-01" nType="0">
          <Node pos="l" depth="2" NCoef="0" IVar="-1" Cut="0.0000000000000000e+00" cType="1" res="-9.9000000000000000e+01" rms="0.0000000000000000e+00" purity="8.8656282424926758e-01" nType="1"/>
          <Node pos="r" depth="2" NCoef="0" IVar="2" Cut="1.7590694427490234e+01" cType="0" res="-9.9000000000000000e+01" rms="0.0000000000000000e+00" purity="5.9905070066452026e-01" nType="0">
            <Node pos="l" depth="3" NCoef="0" IVar="-1" Cut="0.0000000000000000e+00" cType="1" res="-9.9000000000000000e+01" rms="0.0000000000000000e+00" purity="8.4118998050689697e-01" nType="1"/>
            <Node pos="r" depth="3" NCoef="0" IVar="-1" Cut="0.0000000000000000e+00" cType="1" res="-9.9000000000000000e+01" rms="0.0000000000000000e+00" purity="4.5370504260063171e-01" nType="-1"/>
          </Node>
        </Node>
        <Node pos="r" depth="1" NCoef="0" IVar="0" Cut="9.8572099208831787e-01" cType="0" res="-9.9000000000000000e+01" rms="0.0000000000000000e+00" purity="4.3085348606109619e-01" nType="0">
          <Node pos="l" depth="2" NCoef="0" IVar="1" Cut="2.9149964451789856e-01" cType="1" res="-9.9000000000000000e+01" rms="0.0000000000000000e+00" purity="4.8848783969879150e-01" nType="0">
            <Node pos="l" depth="3" NCoef="0" IVar="-1" Cut="0.0000000000000000e+00" cType="1" res="-9.9000000000000000e+01" rms="0.0000000000000000e+00" purity="6.0878258943557739e-01" nType="1"/>
            <Node pos="r" depth="3" NCoef="0" IVar="-1" Cut="0.0000000000000000e+00" cType="1" res="-9.9000000000000000e+01" rms="0.0000000000000000e+00" purity="3.3641079068183899e-01" nType="-1"/>
          </Node>
          <Node pos="r" depth="2" NCoef="0" IVar="-1" Cut="0.0000000000000000e+00" cType="1" res="-9.9000000000000000e+01" rms="0.0000000000000000e+00" purity="0.0000000000000000e+00" nType="-1"/>
        </Node>
      </Node>
    </BinaryTree>
    <BinaryTree type="DecisionTree" boostWeight="3.4159945048513302e-01" itree="49">
      <Node pos="s" depth="0" NCoef="0" IVar="3" Cut="9.0476197004318237e-01" cType="0" res="-9.9000000000000000e+01" rms="0.0000000000000000e+00" purity="5.4549807310104370e-01" nType="0">
        <Node pos="l" depth="1" NCoef="0" IVar="3" Cut="9.9114310741424561e-01" cType="0" res="-9.9000000000000000e+01" rms="0.0000000000000000e+00" purity="5.6572836637496948e-01" nType="0">
          <Node pos="l" depth="2" NCoef="0" IVar="-1" Cut="1.6567690372467041e+00" cType="0" res="-9.9000000000000000e+01" rms="0.0000000000000000e+00" purity="6.2876898050308228e-01" nType="1"/>
          <Node pos="r" depth="2" NCoef="0" IVar="4" Cut="8.1113368272781372e-01" cType="1" res="-9.9000000000000000e+01" rms="0.0000000000000000e+00" purity="2.6563388109207153e-01" nType="0">
            <Node pos="l" depth="3" NCoef="0" IVar="-1" Cut="0.0000000000000000e+00" cType="1" res="-9.9000000000000000e+01" rms="0.0000000000000000e+00" purity="5.5242645740509033e-01" nType="1"/>
            <Node pos="r" depth="3" NCoef="0" IVar="-1" Cut="0.0000000000000000e+00" cType="1" res="-9.9000000000000000e+01" rms="0.0000000000000000e+00" purity="1.5977405011653900e-01" nType="-1"/>
          </Node>
        </Node>
        <Node pos="r" depth="1" NCoef="0" IVar="-1" Cut="0.0000000000000000e+00" cType="1" res="-9.9000000000000000e+01" rms="0.0000000000000000e+00" purity="0.0000000000000000e+00" nType="-1"/>
      </Node>
    </BinaryTree>
    <BinaryTree type="DecisionTree" boostWeight="5.4446432822437696e-01" itree="50">
      <Node pos="s" depth="0" NCoef="0" IVar="0" Cut="1.4425551891326904e+00" cType="0" res="-9.9000000000000000e+01" rms="0.0000000000000000e+00" purity="4.5869982242584229e-01" nType="0">
        <Node pos="l" depth="1" NCoef="0" IVar="2" Cut="7.9271907806396484e+00" cType="0" res="-9.9000000000000000e+01" rms="0.0000000000000000e+00" purity="6.4335989952087402e-01" nType="0">
          <Node pos="l" depth="2" NCoef="0" IVar="-1" Cut="7.4845867156982422e+00" cType="0" res="-9.9000000000000000e+01" rms="0.0000000000000000e+00" purity="8.1258994340896606e-01" nType="1"/>
          <Node pos="r" depth="2" NCoef="0" IVar="2" Cut="5.8556060791015625e+00" cType="1" res="-9.9000000000000000e+01" rms="0.0000000000000000e+00" purity="4.5344758033752441e-01" nType="0">
            <Node pos="l" depth="3" NCoef="0" IVar="-1" Cut="0.0000000000000000e+00" cType="1" res="-9.9000000000000000e+01" rms="0.0000000000000000e+00" purity="7.2971326112747192e-01" nType="1"/>
            <Node pos="r" depth="3" NCoef="0" IVar="-1" Cut="0.0000000000000000e+00" cType="1" res="-9.9000000000000000e+01" rms="0.0000000000000000e+00" purity="3.2001531124114990e-01" nType="-1"/>
          </Node>
        </Node>
        <Node pos="r" depth="1" NCoef="0" IVar="5" Cut="7.9553155899047852e+00" cType="0" res="-9.9000000000000000e+01" rms="0.0000000000000000e+00" purity="3.6460778117179871e-01" nType="0">
          <Node pos="l" depth="2" NCoef="0" IVar="2" Cut="9.6186361312866211e+00" cType="0" res="-9.9000000000000000e+01" rms="0.0000000000000000e+00" purity="4.9649840593338013e-01" nType="0">
            <Node pos="l" depth="3" NCoef="0" IVar="-1" Cut="0.0000000000000000e+00" cType="1" res="-9.9000000000000000e+01" rms="0.0000000000000000e+00" purity="7.5558024644851685e-01" nType="1"/>
            <Node pos="r" depth="3" NCoef="0" IVar="-1" Cut="0.0000000000000000e+00" cType="1" res="-9.9000000000000000e+01" rms="0.0000000000000000e+00" purity="3.6134997010231018e-01" nType="-1"/>
          </Node>
          <Node pos="r" depth="2" NCoef="0" IVar="-1" Cut="7.2804498672485352e+00" cType="1" res="-9.9000000000000000e+01" rms="0.0000000000000000e+00" purity="1.5316687524318695e-01" nType="-1"/>
        </Node>
      </Node>
    </BinaryTree>
    <BinaryTree type="DecisionTree" boostWeight="3.2198386275378615e-01" itree="51">
      <Node pos="s" depth="0" NCoef="0" IVar="1" Cut="8.5113310813903809e-01" cType="0" res="-9.9000000000000000e+01" rms="0.0000000000000000e+00" purity="4.2090281844139099e-01" nType="0">
        <Node pos="l" depth="1" NCoef="0" IVar="-1" Cut="0.0000000000000000e+00" cType="1" res="-9.9000000000000000e+01" rms="0.0000000000000000e+00" purity="8.3698177337646484e-01" nType="1"/>
        <Node pos="r" depth="1" NCoef="0" IVar="-1" Cut="1.9417920112609863e+00" cType="1" res="-9.9000000000000000e+01" rms="0.0000000000000000e+00" purity="3.6758616566658020e-01" nType="-1"/>
      </Node>
    </BinaryTree>
    <BinaryTree type="DecisionTree" boostWeight="5.6486456028706233e-01" itree="52">
      <Node pos="s" depth="0" NCoef="0" IVar="1" Cut="1.9822753965854645e-01" cType="0" res="-9.9000000000000000e+01" rms="0.0000000000000000e+00" purity="5.6006783246994019e-01" nType="0">
        <Node pos="l" depth="1" NCoef="0" IVar="4" Cut="1.1521881818771362e+00" cType="0" res="-9.9000000000000000e+01" rms="0.0000000000000000e+00" purity="6.3233715295791626e-01" nType="0">
          <Node pos="l" depth="2" NCoef="0" IVar="1" Cut="8.4581059217453003e-01" cType="1" res="-9.9000000000000000e+01" rms="0.0000000000000000e+00" purity="7.0246273279190063e-01" nType="0">
            <Node pos="l" depth="3" NCoef="0" IVar="-1" Cut="0.0000000000000000e+00" cType="1" res="-9.9000000000000000e+01" rms="0.0000000000000000e+00" purity="7.4708634614944458e-01" nType="1"/>
            <Node pos="r" depth="3" NCoef="0" IVar="-1" Cut="0.0000000000000000e+00" cType="1" res="-9.9000000000000000e+01" rms="0.0000000000000000e+00" purity="4.6269139647483826e-01" nType="-1"/>
          </Node>
          <Node pos="r" depth="2" NCoef="0" IVar="5" Cut="8.4404020309448242e+00" cType="0" res="-9.9000000000000000e+01" rms="0.0000000000000000e+00" purity="4.6645399928092957e-01" nType="0">
            <Node pos="l" depth="3" NCoef="0" IVar="-1" Cut="0.0000000000000000e+00" cType="1" res="-9.9000000000000000e+01" rms="0.0000000000000000e+00" purity="7.8129470348358154e-01" nType="1"/>
            <Node pos="r" depth="3" NCoef="0" IVar="-1" Cut="0.0000000000000000e+00" cType="1" res="-9.9000000000000000e+01" rms="0.0000000000000000e+00" purity="1.9430875778198242e-01" nType="-1"/>
          </Node>
        </Node>
        <Node pos="r" depth="1" NCoef="0" IVar="2" Cut="1.1611579895019531e+01" cType="0" res="-9.9000000000000000e+01" rms="0.0000000000000000e+00" purity="3.4121185541152954e-01" nType="0">
          <Node pos="l" depth="2" NCoef="0" IVar="1" Cut="4.4921986758708954e-02" cType="0" res="-9.9000000000000000e+01" rms="0.0000000000000000e+00" purity="6.4940035343170166e-01" nType="0">
            <Node pos="l" depth="3" NCoef="0" IVar="-1" Cut="0.0000000000000000e+00" cType="1" res="-9.9000000000000000e+01" rms="0.0000000000000000e+00" purity="8.4665989875793457e-01" nType="1"/>
            <Node pos="r" depth="3" NCoef="0" IVar="-1" Cut="0.0000000000000000e+00" cType="1" res="-9.9000000000000000e+01" rms="0.0000000000000000e+00" purity="3.6919590830802917e-01" nType="-1"/>
          </Node>
          <Node pos="r" depth="2" NCoef="0" IVar="-1" Cut="1.4235696792602539e+00" cType="0" res="-9.9000000000000000e+01" rms="0.0000000000000000e+00" purity="1.5961068868637085e-01" nType="-1"/>
        </Node>
      </Node>
    </BinaryTree>
    <BinaryTree type="DecisionTree" boostWeight="4.7008347402574430e-01" itree="53">
      <Node pos="s" depth="0" NCoef="0" IVar="1" Cut="8.0992347002029419e-01" cType="0" res="-9.9000000000000000e+01" rms="0.0000000000000000e+00" purity="4.2430368065834045e-01" nType="0">
        <Node pos="l" depth="1" NCoef="0" IVar="-1" Cut="8.9147037267684937e-01" cType="1" res="-9.9000000000000000e+01" rms="0.0000000000000000e+00" purity="7.6418548822402954e-01" nType="1"/>
        <Node pos="r" depth="1" NCoef="0" IVar="2" Cut="1.1339447975158691e+01" cType="0" res="-9.9000000000000000e+01" rms="0.0000000000000000e+00" purity="3.7027379870414734e-01" nType="0">
          <Node pos="l" depth="2" NCoef="0" IVar="4" Cut="1.8202019929885864e+00" cType="1" res="-9.9000000000000000e+01" rms="0.0000000000000000e+00" purity="6.5341776609420776e-01" nType="0">
            <Node pos="l" depth="3" NCoef="0" IVar="-1" Cut="0.0000000000000000e+00" cType="1" res="-9.9000000000000000e+01" rms="0.0000000000000000e+00" purity="7.6022732257843018e-01" nType="1"/>
            <Node pos="r" depth="3" NCoef="0" IVar="-1" Cut="0.0000000000000000e+00" cType="1" res="-9.9000000000000000e+01" rms="0.0000000000000000e+00" purity="3.9184355735778809e-01" nType="-1"/>
          </Node>
          <Node pos="r" depth="2" NCoef="0" IVar="-1" Cut="1.9463851451873779e+00" cType="1" res="-9.9000000000000000e+01" rms="0.0000000000000000e+00" purity="2.8922048211097717e-01" nType="-1"/>
        </Node>
      </Node>
    </BinaryTree>
    <BinaryTree type="DecisionTree" boostWeight="3.6536859936242227e-01" itree="54">
      <Node pos="s" depth="0" NCoef="0" IVar="0" Cut="1.6543548107147217e+00" cType="0" res="-9.9000000000000000e+01" rms="0.0000000000000000e+00" purity="5.3343832492828369e-01" nType="0">
        <Node pos="l" depth="1" NCoef="0" IVar="1" Cut="2.4758610129356384e-01" cType="0" res="-9.9000000000000000e+01" rms="0.0000000000000000e+00" purity="7.0845419168472290e-01" nType="0">
          <Node pos="l" depth="2" NCoef="0" IVar="-1" Cut="1.6887056827545166e+00" cType="1" res="-9.9000000000000000e+01" rms="0.0000000000000000e+00" purity="9.0342038869857788e-01" nType="1"/>
          <Node pos="r" depth="2" NCoef="0" IVar="-1" Cut="1.9982428550720215e+00" cType="1" res="-9.9000000000000000e+01" rms="0.0000000000000000e+00" purity="2.5432035326957703e-01" nType="-1"/>
        </Node>
        <Node pos="r" depth="1" NCoef="0" IVar="0" Cut="9.9924409389495850e-01" cType="0" res="-9.9000000000000000e+01" rms="0.0000000000000000e+00" purity="4.7803705930709839e-01" nType="0">
          <Node pos="l" depth="2" NCoef="0" IVar="0" Cut="1.0305441617965698e+00" cType="1" res="-9.9000000000000000e+01" rms="0.0000000000000000e+00" purity="5.3254330158233643e-01" nType="0">
            <Node pos="l" depth="3" NCoef="0" IVar="-1" Cut="0.0000000000000000e+00" cType="1" res="-9.9000000000000000e+01" rms="0.0000000000000000e+00" purity="8.8023495674133301e-01" nType="1"/>
